-0.00654922121880745 0.198825692415394 0.0840874855770468 0.154906510763111 -0.191170079811479 -0.109710162603688 -0.0547634991629144 0.190955230362583 -0.13142402707844 -0.0996368573719497 -0.11122723962177 -0.00571454221234745 -0.0932187012094742 -0.0231974061949705 -0.0412776169457778 0.11131070239031 0.0070242538354715 0.201683262646879 0.054679129774446 0.167769749636826 0.00931349030647705 -0.0283380746063974 0.111464891127731 0.0577284552997468 -0.0566877103199083 -0.0367600169992668 0.12581518897872 -0.117507460676702 -0.198163512895632 -0.014392000496193 0.0592921189307553 0.151634725179933 -0.0367985577344215 -0.0307612545696585 0.00057677107099837 -0.012465230793625 -0.113889049943989 0.18012165571966 -0.102494399416112 0.104227317503985 0.133046588142008 0.112025823186678 0.208841584008433 0.14384476944647 -0.0444106903288797 -0.136844567234259 0.0984411635945425 0.0438600947105445 0.180874223353493 0.175430322840975 0.156106789808515 0.124968432280992 -0.149917844042204 0.132393752987223 -0.154564637567596 -0.121532218395798 -0.165313276871746 -0.194789871395899 0.133040382051388 0.0825338300978245 -0.226111810700054 -0.0416681994854804 -0.0798458205872421 0.0563739840112591 0.208019487220672 -0.126523890790875 -0.0728255618614583 -0.161914407921445 0.0753828598345171 -0.0207194906650909 -0.148822687655847 -0.198193373328624 0.0423793340741866 0.131472530294088 0.198314141157038 -0.0267738311675729 -0.175540008003117 -0.172362209863679 0.0903083377038496 0.0416744802028065 0.187972094105745 0.0636188367771442 0.093418955727522 -0.0761122145906109 -0.0856897676297273 -0.0145187113280794 0.110859444278263 -0.100458766156735 -0.146980213361989 -0.161529933499596 -0.0178911914118585 -0.0103537387999828 0.152789352654819 -0.149348621879876 -0.0794441074555403 0.148375364558622 -0.0788741891790342 -0.140311895507519 -0.137874571526955 0.00470748180285206 -0.202702339250069 -0.170165739312003 0.0601747271175778 0.158486241295259 -0.0941966398854551 0.119280934556799 -0.112815257957459 -0.0930511232032753 -0.0142161020003827 0.0264273517401716 -0.194806013430422 -0.000423786407451648 0.00675898669716333 0.0252276788948416 -0.144854452701024 0.155051034120689 0.0219285963337667 -0.0983692161167995 0.0640810289801326 -0.110638171236874 -0.138817783128909 0.0219591995881343 -0.023627002904907 0.171228964476615 0.0712313938060563 -0.00351547256685049 -0.0333367972325717 0.0123127095984788 -0.169377128142558 0.0974388301514176 0.0123499870380259 -0.170905031103458 0.0564988195898939 -0.137359105075008 0.0039337074078413 0.105229251100478 0.159385721786655 -0.181167790331084 0.0254191413632933 0.138089309772805 0.143821105244344 0.00693325495997234 -0.144613065782603 -0.0294805864767787 -0.141204541430119 0.13903137167478 0.105006129425966 -0.0567240405543648 -0.0498180657017233 0.00421092209449518 -0.0659955776133001 0.000363536626263812 0.0201863172241585 0.00117246716733572 -0.0632613767701637 0.0110795417798659 -0.728943599640056 0.428502613089544 1.01591667036881 -0.309636580847452 -0.353266366329184 0.162866547838436 0.0443307905020464 0.00497153141523157 0.0154209878809115 -0.00158100816808408 0.0965992791994182 0.0284123879624158 0.0522140498672967 0.0312824696413662 0.0488878227792056 -0.0790317537821633 0.0782979535455605 0.0281754039355984 0.016335283021738 0.0285739100354673 0.0546591801356511 -0.0321392033419303 -0.0468369358750882 0.0350350501965033 -0.0656730930504917 -0.0394728494230044 0.0724467823933117 0.0579262840062334 -0.0226221835674384 0.0613393171248825 0.0846033311536315 -0.107727594284646 0.0488389875431097 0.00683115891364169 0.0144795245545157 -0.101391778693108 -0.0867667979805858 0.0523524359553069 0.0883971056015681 -0.0951894139738547 -0.00841279349794263 -0.0232357936009995 0.0114015542962913 0.0927451651427267 -0.0208044312227052 -0.0310349489225036 -0.0589269869531367 0.0631608531752026 0.103961896934167 0.0788517902464351 0.0250137511599462 -0.042565559679534 -0.110073969554636 0.0678486089072945 0.0522088314668769 -0.0472111840212603 -0.0251244607169344 -0.0164635476637009 -0.0200234998740393 -0.107455482027202 0.0890669348370013 0.0513366513811414 -0.025391120150442 0.00213133159925651 0.0997906654057958 0.0737901930449908 0.0269937798185376 0.0128847592170485 -0.0831316988606305 -0.0427938665244777 0.094159529119977 0.0682351541786794 0.0551980592968601 0.0218199170456991 0.0830588811200805 -0.127538586717832 -0.0967909431153493 -0.0046623299785632 -0.0548764362353893 0.0353802084019512 0.0356971910540425 -0.117533720081052 0.0475183655783959 0.0421874854208477 -0.0627655795212498 -0.0702506395184095 0.0218416030060021 0.00172285440251149 0.0530330071369421 -0.0608780949211568 0.0883669445621613 -0.0941472725412717 0.0441860806205537 0.00394011726863969 -0.0784872361849224 -0.0684588185092802 -0.100293769428347 -0.0216594476824261 -0.098971296910185 -0.0820187121274743 -0.0985335608459059 0.00204930027835794 -0.0530147784776762 -0.0831112393538668 0.0752073860397776 -0.0441354053252154 0.00811154515947961 -0.0560338294994212 0.0110341503621112 0.0976926435127081 0.0714479234067839 -0.0463076834912994 -0.0785076336048485 -0.0556444391767736 -0.046127024721531 -0.0853210769469027 0.017914526800985 0.0146364474707328 0.0980953519839238 -0.0171445870009606 0.0127487971210076 -0.0276066466950583 -0.100551301719515 0.0653825171865097 0.0628001172407546 -0.043917703310166 -0.0557798550827072 0.0454116246000049 0.0641521821968191 0.0235940865656865 -0.0234251471577261 -0.0152680398828817 0.0759414162681822 0.0526145473185688 0.0516220268984955 -0.0150794487047829 0.0117482024192472 -0.0149604267345526 -0.0759420262701153 -0.0288472196688756 -0.0919301953215619 -0.0724152289383078 -0.0790987733365776 0.0913260805734316 -0.095140010464825 0.0869851855660542 -0.0819918035618944 0.0588992019102519 -0.0572974504493238 0.0243003236235709 0.0444919477587252 -0.0969265567148477 0.0124744701274374 0.0322371845011996 -0.101823734478558 -0.0773386055603577 -0.0894116561873361 -0.0429569053251775 0.0976108417768383 -0.0290748494629546 0.0142257226928184 -0.0470750921869862 -0.061980020515716 -0.0889949738470881 -0.0517374641467933 -0.0726661779069075 0.0509335604391047 -0.0706855838261884 -0.0636227065984732 0.0916438848200747 0.016995326113343 -0.0269192513138505 0.0981839736114426 -0.0939981564938516 0.0724501733139172 0.0503339743060274 -0.0543440298380824 -0.0420543257067924 -0.00130146446402496 -0.0617575736953256 0.0250579309957398 0.100635678916425 0.068721868151692 0.0820994535338796 -0.0716939394431508 0.0541761972563054 -0.1005661522657 0.0322043113792429 -0.0821763943139345 -0.0825472561478119 0.0106048636762981 0.0764545075111163 0.0242025157439135 0.0578898145550493 0.0174214595566992 -0.00341989690837261 -0.0290433373117688 -0.00876710583269974 0.0821918046550642 -0.104248283866331 -0.000371962842290389 -0.0832720059521273 -0.0406070251158969 -0.0127702494687709 -0.00538553626555476 -0.072808780240817 0.0427366794280458 0.0869814607528922 0.0482470894653227 0.00357498747640315 -0.0494085221613617 -0.0824360763791247 -0.0483554434295839 0.0835799997679695 -0.00849411715924979 -0.061559132183334 0.00307326327347849 -0.0628443912042444 -0.0763181262777032 -0.101178156785387 0.0394300752666286 -0.0866128529565871 -0.0943411647304618 -0.0629044305241524 -0.0436311898940485 -0.0514826118347139 0.0933695089621301 -0.0644568680860989 -0.0619633053976637 0.132975316167038 0.0774547807474566 0.0444427910743432 0.0410259273021479 0.100649393679725 0.112144006176044 0.0146150297855203 -0.0662551158222501 -0.0347040081823621 -0.0847124308388308 0.0556609424708445 0.0586387434388229 0.0136708307339167 0.0628899417154928 0.0514540487065488 0.0867102613748668 -0.0658000587088449 0.0945554834318271 0.0343937579492112 -0.115150231062456 -0.0255082867862085 -0.0569679300390174 0.0504501366044083 0.0143410237589463 0.0369672149446959 0.0828823612462947 -0.0245551592953625 0.0928799328409314 0.0875172175192115 0.0117205600559265 -0.0605073397089744 0.0834626997257513 -0.10993547313733 0.0295722161100807 0.0890617588936858 -0.0229766383484165 -0.0429251379497493 -0.0029264535843057 -0.0695715433072537 0.0217897506029331 -0.099411928270675 0.0103502227801244 -0.0100265373794587 0.0890263965826106 0.0644098629759404 0.0874705619447572 -0.0274951784961747 -0.0219597680441296 0.0228125958328681 0.0967723872620017 -0.0971671413897194 -0.0681084401496818 -0.0303778251189795 -0.0780572174086939 -0.0880443068940457 -0.076229478275778 0.0403550717450415 0.00118278869007594 -0.101791004193046 -0.0999502077990096 -0.00845071523208367 0.093577925082398 0.0963660321542895 0.0683321929150495 -0.0346375777587065 -0.101309231018235 -0.005831582197508 -0.0676403951797534 -0.0824310794165737 -0.0350807755338037 0.000642536601671045 -0.0770822453172343 0.0805679842953582 0.0646504967739146 0.00718119143617453 -0.0324334550306955 -0.0456480148914681 0.0919354555790226 -0.0303762683057219 0.0171322033099863 0.0827802441437182 0.0791354217002054 -0.0540011582181078 0.072012676980106 -0.099457369280569 0.0846836920941361 0.0972871566193563 -0.00838073966429241 -0.014629229292859 0.00968153415728974 -0.0321092827763103 0.0623762552429272 0.0160989034679059 -0.0447618714741091 -0.0780161411080551 -0.00203597279153668 0.0940109807850103 0.0207034681874325 -0.0389354276990402 -0.101201798501093 0.0945933368196324 0.0195276290545416 -0.0588257346626026 -0.0138545578680489 -0.0524948161761023 0.0642055196238595 0.0759957173834942 -0.0385941012681435 -0.0553006429724625 0.0820717736869525 0.0658222552360839 0.0162638421639374 0.00916983372929067 -0.06600811531559 -0.0644936261827048 0.0601464553828352 0.0185580573916137 0.0234025504332702 -0.0943911449621707 -0.0931853134028667 -0.101130836239854 -0.0166709964218459 -0.0940623011980045 0.0374062601453763 -0.0210114603618391 0.087443059573277 0.016064714128974 -0.104362613689999 0.0767718924616103 0.0995917370648586 0.0597773417151001 -0.0257815309790033 -0.0512409249078067 0.103239504712339 -0.0815389536585289 0.0204855586030037 -0.073156432735719 0.0735113106588781 -0.0673940252470302 0.0217829721840452 -0.00552220695753409 0.0283187739290599 -0.0341469839237419 -0.058686531394195 0.0391296581316851 0.0320361315552849 0.0479163498200056 0.0511933936224101 -0.101166523172729 0.0617581393620685 -0.0964428978570033 0.0599488240512536 0.0686849161321895 0.0346560423665559 0.0759443284454957 0.0768559251099839 -0.0934008667406037 -0.024306435363218 -0.0490787301320281 0.0344958421176587 -0.0104639114646099 -0.0151544387548196 -0.0334086432921828 -0.0267290852087169 -0.0553061166026096 -0.0185028566484599 -0.102113779653375 -0.0255659235977569 0.00330906293853771 -0.0415204585155632 -0.0771486270638994 0.0237794353967217 0.00727373147137257 -0.0156149368117848 -0.0745277965709106 0.0950946566264097 -0.0192571767964645 0.0332011895950998 0.0381755426247787 -0.066706452593516 -0.051150493549443 -0.016750433721227 -0.102179861983315 -0.0307748688778266 -0.0586504238631852 0.0598979350348366 -0.100878123477567 0.0765377673746778 0.0925800773335178 0.0859644692125763 0.0595741951602057 0.0331629916581857 0.00179341868636285 -0.0469612337460981 -0.100800705895179 -0.0514489337129181 -0.041323546325213 0.0743249073805623 0.0117199888218712 0.00658029296044048 0.0732303445117709 0.0614324224981119 -0.0665586400765697 0.0184414497296907 -0.0843189599961381 0.0479767522680995 -0.0981656470190397 0.0014563632997901 -0.0117381294595631 0.056585804256932 -0.100411037995636 0.0143839662504267 -0.0904440548393497 -0.00716297333108014 0.0651269451503173 -0.0328612153601242 0.0284701806451367 -0.0901981262518326 0.0569965961049043 -0.0255008078170213 0.04296559836341 -0.0878132474805828 -0.0546859563003815 0.100857206307973 -0.0951679881144817 -0.0665089052106877 -0.0457023008321187 0.0651451563489953 0.0762647377201582 0.0783269344179532 -0.0891716320022011 0.0393582438611502 0.0334922408624874 0.0145169090756479 -0.0653044848948928 -0.0708207573266336 0.00465551223467184 -0.00691853774542409 0.0843676264162302 -0.0323425039467434 -0.00519042386363956 -0.0574372804307989 0.0724905906354306 0.0193250980531252 0.0707687104267255 -0.039215551899628 -0.0753519401559812 0.0869633935363825 0.00841934833153321 0.0855700706214732 -0.00687565342279026 -0.0507363328845699 -0.0587652249221298 -0.0812821559015895 -0.0123605604130826 -0.0641379932075069 -0.00411975320786641 -8.68639445447822e-005 -0.0348257727905969 0.0477499894836185 -0.102584795448021 -0.060956193650554 0.00114137791460903 -0.0526340728763794 0.0361692869708794 0.0734618594772339 -0.0928615191531876 -0.0175786285215591 -0.0715292827915468 0.0243747159419241 0.0219553499803758 -0.0556353293217202 -0.0377629182370424 -0.0831463278887594 0.0815763654952434 0.00331242168035314 0.060657050443753 -0.00477509240871224 -0.0590124885393918 -0.0725545261529853 -0.062624298458418 0.0254444910981284 0.0376927006528567 0.00919341422898982 -0.0718139614819307 0.0321982417482246 0.00216434084544327 -0.0742520152335253 0.101953386055907 0.0525424479304608 -0.0742214400417507 -0.0580620411325721 -0.0943570501244153 0.00404246340464935 0.0833617507863965 0.0595963970099654 0.0449808827900706 -0.0997819196369338 -0.0396212223966552 -0.0366894850147089 -0.022364048746448 0.077900944368413 -0.0875714228121468 0.072007488948197 -0.0308908505575561 0.00802997794994705 -0.104234926307202 0.0765819701933421 0.0271598030687693 0.0945673093298958 -0.0630404016126065 0.0669961419910068 0.024746831487888 0.0757059107816453 -0.0365007944054161 -0.0848663515935969 -0.0962808623884261 0.0302964006981726 0.0478010959504135 0.0433502997084649 0.0534210849066115 0.0218367205965073 -0.0200903686508194 0.0632936154120352 0.0435259886790704 -0.0970077672760263 0.017735514583999 0.0563494348588846 0.0994266962233741 0.0491325663140956 -0.0410715707690718 -0.050911491678304 -0.0396166625231135 -0.0511776955853413 -0.0574570226320057 0.0277782009944129 0.035891917150299 -0.0331194144721491 0.0585150254495293 0.0623348117886195 0.0030796513898134 -0.0112429181224189 0.0235799799290355 0.0592968829102934 -0.094273471708641 0.103061994366393 -0.0116812958365962 -0.0428646182837949 0.0976579215308368 -0.0742631429751279 -0.0284832416297834 0.0841652664667728 0.0107264462551333 0.00828632988927797 -0.0187184839445285 0.0996659909674712 0.0980912241904044 0.02897252012113 -0.062260570500747 0.103307329997113 0.10348401325143 0.0100586125258915 0.0336038869865821 0.00508848128024926 0.0643516908727634 -0.0756042920564588 -0.00821932959088868 -0.0300249433922173 0.0806315114179147 -0.0994988089648139 0.00719514789520333 -0.0705507551667512 0.0164223650467258 0.0512894434363603 0.0870194304666343 -0.0980529818219279 -0.0386218257698691 -0.0276760628952013 0.0472627884882992 0.0759988975248315 0.0642674734720122 0.0406182242011998 -0.00420946389598711 0.046486968698197 0.00576515930003115 -0.0596371118203334 0.0737356089956753 -0.0100809631057688 0.0161157674020354 0.0203597608295243 -0.0430406017094812 0.106817348979587 -0.00141802170474126 -0.0587342379416994 -0.0474822596401721 -0.0523992324782921 -0.0564474975619826 -0.053182193662949 0.0387710383616243 0.0538045195787878 0.0867050727897399 -0.00876046897042394 -0.0634837340088195 -0.0835455602090966 0.0865968600763587 0.0123364028769056 0.00536125314708339 -0.0535885029767599 0.0469968145230402 0.0623763922039735 -0.0411788380631156 -0.042336093002206 -0.00229629994405797 -0.0986798851933612 -0.0619004139502535 0.0195174032782355 -0.0859352607637782 0.0718259236383209 -0.0698351565521533 -0.0248549209224815 0.000625955219990218 0.0521936990474025 0.0600737131629978 0.0023273780396747 0.0843096803180707 0.00855455378631352 -0.0585895069637453 0.095972698802881 0.0497439368772653 0.0634953603537368 -0.0505933255624565 -0.0976945247329896 0.0134127694396282 0.0437395705865146 -0.0767829452569621 -0.00731095191117369 -0.0267200135057756 0.093489925810543 -0.0871386521208028 -0.0581908036790381 0.0011961685100243 -0.0486570690213828 0.0406102669924462 -0.0874272366814819 -0.00898702205443785 -0.0149110400208772 -0.0289787674952573 -0.0816733166986725 0.0660118149661278 0.0279471436750726 -0.0948768794045183 0.0632869561260856 -0.0234320106765266 0.0411102827852662 -0.0086642254901083 0.0556097435780648 0.0492428333724989 -0.0329102618598367 0.0855703676946519 0.0722460189641894 -0.0464984817071689 -0.014879717720213 0.0663796515304696 0.0676834534759891 0.0326533180731641 0.026424185767941 -0.102090212135341 -0.0744864958522168 0.049163783454471 -0.0880721041986882 0.0216193267531772 -0.100617030230314 0.0376047732174596 -0.0905081970630291 0.0175386277736829 -0.00865155926833908 0.0153580316072317 -0.0807702376296534 -0.0290325035003429 -0.0986428426776312 0.0958192848730799 0.0532388266139369 0.10171903631867 -0.0156508733278577 -0.0200508813881661 0.0534507977439294 0.0710465646515299 -0.0120287222197582 0.105119180808936 -0.0079819606234825 0.0200205546929886 -0.00239961940349555 0.0367328932458147 -0.00250193803335698 -0.0859719480507309 0.0631574524625573 0.101297907426014 -0.0211534717235899 0.063765020074424 0.087534819986846 0.106035634205645 -0.0956100446799552 0.0326097541362976 0.0621812961022395 -0.0917171414114131 -0.0722461388869923 0.0511733391676327 0.0295541695658886 0.0413472026837936 -0.100474493459276 0.02423988477436 0.00902808197745781 -0.0809206561488924 -0.101953822377794 -0.0445546400469161 0.0963979779195873 0.0587500570720194 0.0839354864747431 0.0836381802920575 0.0633062155327502 0.00478304197448787 0.0889219292108007 0.0455791063615587 -0.0721702533268956 -0.0878244788543029 -0.0706150269279345 0.0253665532862605 -0.0634446652990743 0.07317436521144 0.0265706048955041 0.0414250119183068 0.0842665086219423 0.0108460203127484 0.102396701812298 0.0733791537893309 0.0357544634914268 0.0402897998622085 0.0330356361684669 -0.0510679697523783 0.0834048793007727 0.105115273386025 -0.0190480686635765 0.0103523493155339 -0.0508128648899266 0.0315960040838692 -0.0646118228044695 0.00321387986858143 -0.0770198317736049 0.0835713771472477 0.0653587493612265 0.075994787580917 -0.0724343424917179 0.0736926240174271 -0.0477742441371584 0.0333135469703763 0.0738602851671233 0.0263100150925528 -0.033574871284418 -0.0465671311676966 0.0975520772149852 0.102804240629223 -0.041835416232635 0.0765979747320764 0.00153462118145221 -0.00683285422949629 -0.0458492611549581 0.0527432826982699 0.0908603430487942 -0.0820248892373212 -0.0373707981517338 0.0732520100668664 -0.0303519100669356 -0.107962080379411 -0.00177914279232211 -0.0625096203078737 0.0837521343878714 0.0610201311023269 -0.112925310581454 -0.0440644384191958 0.0388160044532798 -0.012083607952192 0.0743071596598536 0.0253664270471006 -0.0987464782221283 -0.0743779136599277 0.00460635605912141 -0.0405674245946781 -0.0363495438066679 0.0808250480202199 0.0750948696706134 0.0808086425089736 0.0122237080698111 0.00317865669975979 0.0397373067567151 -0.0486538238811356 -0.00984858271489504 0.0794511596637895 0.0268028845202692 -0.00042127335623221 -0.043847336800297 -0.0347934029519295 -0.102493739308721 0.0824494325372451 0.0160337923031875 -0.0617314782873217 -0.0393880194163611 0.0667632355510301 0.00360708364428138 0.0707809186849959 0.0869843453664533 0.00476193607456223 -0.0153589159203514 -0.0706188696433139 -0.052767247261097 0.0937882398096453 -0.0268858556778006 -0.0920280866730827 0.0902128443601873 0.0807371090092798 0.0912588280791718 0.0155300015701635 0.0719281809636521 -0.025308058635792 0.0877782782029649 0.0294341489670736 -0.0568397751718011 -0.0777485813811864 -0.0861721554668223 -0.0194891340513511 -0.056963138651564 -0.0299949543075042 -0.0387754591423439 -0.0728711270295256 -0.0679391927252773 0.0744647943355094 0.0223712419736765 -0.0831378915552154 -0.0180512096452343 0.0946538907222609 0.066083675353319 -0.0696003233657681 -0.0657741150332954 -0.0126580003614163 0.042170631996275 -0.0709367028774512 -0.0542379423698528 0.079227288370698 0.0155038617081837 -0.00450157618951814 -0.0315454624933002 -0.0210661681288943 -0.0925471179216343 -0.0469027481589239 -0.0566489761777438 -0.0936590914279589 0.0342799070988499 -0.0754700544674589 -0.000574437682308193 0.060794694785025 0.00510773351540218 -0.0671765693428146 -0.068513744309296 0.0172976672038365 0.0169948036914633 0.0906849305245508 0.104264732050085 -0.0829901282071275 0.0629671759126659 -0.00751541030621914 0.0224636075446917 -0.0699225951174893 0.0997533842327954 -0.0437678193941316 0.0855938246779315 0.0572298033410469 0.0225208522386422 0.0290157018446496 -0.0965096444569922 0.0477535963366506 -0.0821156803986788 -0.0612116437964131 -0.0889516277300076 -0.0885559091625031 -0.00801918731826531 0.081441596715303 -0.0251987089439462 -0.0359288621853458 0.101940711325334 0.0231473091121376 -0.0694423703955701 0.0918223133776191 0.0960153961885242 -0.0191321026775838 0.0569808404056943 -0.0643850061139716 0.0642618592855043 -0.0716703894910415 0.0273125507544845 0.0279902256537023 0.0367491237801804 -0.0947465641604568 -0.00781899959192884 -0.0376931108192914 -0.0983649560298068 0.10326183243751 -0.0328745089768482 0.0517003741381191 -0.00532388602062436 -0.0628072594940924 0.0475872277298875 0.0183776792851914 -0.00641073156486664 -0.0136798920098662 -0.0115217265433065 0.0228323018387623 -0.0753466170165731 -0.0376790372188019 -0.10391727118355 -0.0859286924416362 0.052039899214604 -0.0379041409601602 -0.0372398088442568 0.100278559479063 0.0958315679984006 -0.0738181806562812 -0.0576453947537559 -0.00512864772554058 -0.0338533736716993 0.0258551373320446 0.0023413560829951 -0.0945730163884616 0.0599614871002477 -0.044754492463348 -0.000775007022257113 0.0837481519991591 -0.0798444028284218 -0.0812929789122382 -0.0413905124689375 -0.0986959337107654 0.00745030613393356 0.0398774106221713 0.0327918661563372 0.075019781505229 0.0587099290097834 -0.0195520243034862 -0.0740637448888146 -0.0271914295114811 -0.107170894431538 0.0765462286962352 0.0186928493169058 0.101780722490992 0.0643416518824033 -0.017803454798648 -0.106660731609094 0.112484774965586 0.0525417425077526 0.0465413235226013 0.030970082592465 0.0550012376483971 -0.00722371193643813 0.0183692401785519 0.0863126631534333 -0.0776130684152681 0.0295381871890392 0.0657379586628584 -0.10212104731349 -0.0830812439041964 -0.00527296183298736 -0.0367063316545475 0.0759004685874465 0.0148132647056049 0.0681080424756724 0.0219935837622792 0.0275058164755348 -0.00819560995918076 0.0391031904163632 0.0661560728352762 0.0134314522510938 -0.0568720100825329 -0.0465820590386219 -0.0108682827626559 0.0174932381301808 0.0643718704310839 0.0358731816631968 0.0100525768552171 -0.0308264452091392 -0.0527399838418969 0.0743301227661716 -0.102196439385548 -0.0637045904331521 -0.0528665863823151 0.0516636327559074 -0.0522505231933539 -0.043950552998863 0.0241821769200276 0.0571948056837599 -0.0497304689275527 -0.0150951793813281 0.00507107077451589 0.0642761014485553 -0.0250138598881299 -0.03059556808616 -0.0969077030735342 -0.0598075332116706 0.0717770548086021 0.0558339136466207 -0.0104516811498062 -0.0399733938467709 0.0995336311463872 0.0487233064183419 -0.092446256811061 0.0510687761075994 -0.0703783240723773 -0.0581983313810947 -0.0663038906716608 -0.0597200262408495 0.00862573826879535 -0.0628877272241809 -0.0474816579890354 -0.074675484100622 -0.00140621310884421 -0.0256766076796679 0.0488690970749016 -0.0988842092366582 -0.0658524448358217 -0.0812760843347485 0.0878808091099317 0.0364652356196378 0.0334360640714817 0.062621276268965 0.039705448430592 -0.0876245236701071 -0.0693345042017427 -0.0560455597072211 0.0388026587015106 -0.0610750078932882 0.0212662372360475 0.0871781375624694 0.032370327320676 0.0441421635454842 0.00369616586168273 0.0112561289080149 -0.0899317504890094 -0.040834861027423 -0.0054652508428478 0.0699487289707493 -0.00318691944879583 -0.0135141446404927 0.0246281822020285 0.0884571192579091 -0.0834066091768394 0.043042818567459 -0.0985412870831158 -0.00458910932690279 -0.0902484072977952 -0.07808216270382 -0.0259271510178959 0.0994422546855489 0.0467101037877805 -0.0809520370567976 -0.0251342831372969 -0.06391152533508 0.0895294481552549 -0.0215213628223734 -0.00312482488008499 -0.0293037232909079 -0.0161796059641809 -0.0735991868247218 -0.0349816862833684 0.0466490410664206 -0.0351780400330766 -0.067572961757596 -0.096911396566077 0.0326613314722367 -0.00664329355784893 0.0580580487347234 0.0869718242059416 -0.062464460112941 0.0829846254593497 0.026200582025902 0.0731151875602061 0.0604531969126468 0.103254599780886 0.0356340707120313 -0.0277681750592981 0.0350160502647187 0.0876794303094332 -0.0513272832221406 -0.101318469030561 0.0572839040957499 -0.0113088592903115 0.106091348251531 -0.0743111560094262 -0.020767168824696 0.0964618136287525 0.0710199899103487 -0.0256628987405617 -0.0864277865026785 0.064460547710541 0.0780141369468663 0.0541152819990833 -0.0741965251197169 -0.0182944323386904 -0.0223962203363513 -0.0813550800033519 -0.0457134534305918 -0.0795798659220889 -0.103186952860464 -0.0949086612220713 0.0809930775880376 0.0833249344647147 -0.0273441813709769 0.0406416406653889 -0.00224478021354142 -0.0172343294026685 -0.00262514370068146 0.0163355636245264 -0.0764315163684308 -0.067689970583041 -0.0651858142151286 0.0451800344315579 -0.0877453598940047 0.0730754852768537 0.00118359972694777 0.0154392248550908 -0.047647119742739 0.0222051735249843 -0.0322936844497278 0.0864392911551098 -0.0766782317207877 0.0875265589434997 0.0619016246570583 0.0202781392443741 -0.0823163351715585 0.0593144128183587 0.101781945777887 0.0621395252947422 -0.065700840246439 0.0979913946814657 0.0122618869662642 0.0362689647709791 -0.0955096498302539 0.0882797839708246 0.0590518359248331 -0.0933989247960924 -0.0694066298665908 0.00476059735503546 0.00623550379050898 0.0192168803496978 0.0489084990883147 -0.0260762296021421 -0.0744830187195727 -0.0503393401160305 0.0125130090200419 -0.00934235176225415 -0.0578392449432992 0.0117480684147696 0.0550466077876246 0.0722609835635181 0.0465654650457361 0.0659674777183028 -0.0675667035222078 -0.0498702807675256 0.0756123477536625 0.100698128046715 -0.100315710091881 0.0894183242837346 0.0752510541433995 -0.0343269184916507 0.012304603849214 0.0427316499278752 -0.0202165846535785 0.0311531723025887 0.0540504716362232 -0.0608316302538966 0.0453149908971834 0.0510684250962814 0.101799116751844 0.0997920051935323 -0.0463565220203321 -0.0176297276860447 -0.103654120763062 -0.085320697580368 0.0906392995714631 -0.0498631876346981 0.0747622666759087 -0.0566404254019618 0.0478053884273179 0.0692357278075511 0.00348617281780214 0.00560128156575129 0.0432317496190635 -0.0976158892972192 0.058600712429809 0.0544883672776306 -0.0261375631158872 -0.0160067422047081 0.0564685345223615 -0.0674705414498077 0.052353712933536 0.0420374311531735 0.0236490513292505 0.0203875413187688 -0.0204995394148826 -0.0468789969929208 0.041216302064793 -0.0915286222749298 -0.103796338516415 0.0427989355923885 0.0574240369882561 -0.0296222733297878 0.0828087278586049 0.0466327364596859 -0.0544551723653869 0.00563480774279851 -0.0792191507639817 -0.0846138423495789 -0.0584307693541806 -0.0299858105040097 -0.0413406444561256 0.0856427626968366 0.0800120460816577 -0.0671244046026142 0.00901717318251807 -0.0642497887802552 -0.0445544834624035 -0.0623948885598301 -0.0755452410723349 -0.0789294397278783 -0.0438373924361408 0.0270874753727093 0.0237868934300838 0.0939925415773176 -0.0454856390472445 -0.0859243048219339 -0.00217908607304807 -0.0162359611684546 -0.0292818095082227 -0.0921638971104155 0.0767605502366055 0.0252816931703338 -0.0251033518824895 -0.000805254613500755 -0.0345437800065617 -0.0269520040022708 0.0419006148185333 -0.0583447394332173 -0.0823317998368422 -0.0536208982178954 -0.00428237667035493 0.0945974105742457 -0.0361530745872389 -0.0327039010324551 0.00659873379901829 0.0478802862735662 0.100089833785636 0.0267725751334038 -0.0181868331014947 -0.0147065031659375 0.0577856992897926 -0.0093354224110367 -0.0145953886061343 -0.0942942815307176 0.0288602382251494 0.0926457386747313 -0.0768824683340256 -0.0817299241673167 -0.0244543421248117 -0.0781227953785006 0.0855928889462314 -0.0681213275015291 0.0219770081168969 0.0690976520719626 0.0536918080790178 0.101590323523029 0.00519949504242389 0.0969615594572903 -0.000521987183846306 -0.0295553508455646 0.0691535231826169 0.0007319471308995 -0.0806078401570949 0.0417176554428471 0.0224628559310019 0.0697738850652 0.0953491983631617 0.0900751212148122 0.00612286368098985 -0.080593789825786 -0.0617504168282701 -0.0764699567312649 0.0749915196679835 0.0520981399604112 -0.0462533455638709 0.0994556295104033 0.0438190104164318 0.0166481575735169 0.0109210481089441 0.0999671307116847 0.0985345824213639 0.0777316295077922 0.0291512836604225 0.0460474780259666 0.0786562748751037 -0.0608043745438516 -0.0985371476675532 0.0298878254934462 0.109236215057968 0.015083043111261 -0.0869062643599743 -0.090547071355042 -0.035021088216949 -0.0093552441062742 0.095861381615829 0.0767717406648997 -0.102048869638331 -0.100579663882727 0.0711208554031771 -0.0832968565010653 0.0778039594318179 -0.0138686985066937 -0.0108857255737823 0.022496283194299 -0.0468215805731821 0.0772556725434372 0.063167163209353 0.0236918047253039 -0.00245483055769898 0.0111503252201131 -0.0739001866052445 0.0695989493897136 0.0875787403908401 0.0514190411627625 0.0813374200115867 -0.0461352188303836 -0.0114608604273452 -0.0589043005844204 0.0804354367945178 0.0397208291994525 -0.0215248865525072 0.0106180658677478 0.0315934875590968 -0.0780298882841823 -0.0225632623676455 -0.0285326661095426 -0.0121333019721891 -0.00803032186126556 -0.0629878216483027 0.0797740084393336 0.0944493202821994 0.0813046935596958 -0.0654796374099546 -0.0677557438139644 -0.0966903622176927 -0.00279291294463324 -0.0850524928377818 -0.0881266731178229 -0.106633859505588 0.0436205113119084 0.0451095861456298 -0.0724413546469976 0.0134732596767702 -0.10391463969023 0.0615354120321138 -0.101521345499232 0.00147894803317135 -0.0589891180044786 0.0609594269234379 0.0845695240700806 0.0408938118146219 -0.0912296135973384 0.0580406544900885 -0.0433873037111245 -0.019535090513365 -0.0741516057150385 0.030868277567827 0.0316567453862226 -0.06688878928889 -0.0744272484782066 -0.0372205953423621 -0.039487566313712 -0.0683906644358596 0.0950007863997972 -0.0190850623897207 0.0872139210190348 -0.0540158621731725 0.0728091576519921 -0.0194433606580085 0.00527910059657939 0.0992707106831441 -0.0842311599568159 -0.0375340678068197 -0.0738803460944484 0.100789070862422 -0.0177343047404621 0.0284734213594411 0.00519562672975281 -0.0260926347858191 -0.045530994517439 0.0746760761555998 -0.0496709521546661 0.0249808554373414 -0.00898697546044552 -0.0517986003284157 -0.0217242199463735 0.0611755557346499 0.048036554501141 -0.0140086878278659 -0.0964344179291749 -0.0214572332080022 0.0261036800760846 -0.0419607042987805 -0.105427573135943 0.0423196660203469 -0.0813255296950702 -0.040432874322664 -0.0579671147949321 0.0479331920813371 0.0176362400953971 -0.0347478325047859 -0.0770851282936962 0.00223868440292832 0.0561455378812971 -0.00251677105097557 -0.0869538711878119 0.0771383373134961 -0.0384893854568491 0.0715364811743909 0.0750377618200765 -0.0579648837152551 0.089685726653504 0.0139069410857091 -0.0555765658820924 0.0730809258521284 0.00432873188339575 -0.0171645565802106 0.00659887019367483 0.082574355099508 -0.0140583015729034 -0.0523673833849019 -0.0162346739325335 0.0166035684594065 0.0855230692875224 0.0267459236191449 -0.0309263488967051 -0.0613242244627728 -0.0992139509223861 -0.108770640564866 -0.0663831378391015 -0.0318595889975312 -0.0236480528245531 0.0867701824780002 -0.0490345395621077 -0.0487191292891806 -0.00294622692746687 0.0495225279900202 0.0469081768221686 -0.0749261225844643 0.0792550076043654 -0.0388214679530887 0.0543653873483203 -0.0731397831366566 0.0147061719016239 0.0409462778360335 -0.0762421121656897 0.0353462525757594 -0.0151388310301725 0.0438979880701137 0.0478454579301838 -0.057220684249208 -0.104713202950375 0.0363591518254418 -0.000856927994064947 -0.0614562196679205 0.000892867040143945 -0.0190746807111756 0.00396927657761704 -0.0274246319953047 -0.075050743608913 -0.0332201412107538 0.0292110189020911 -0.0916829410719756 -0.0561053215122048 0.0279809737247685 -0.0778059389038031 0.0386474459196063 -0.0274371991332633 0.0119416600768624 0.0035765184873795 0.0278185663873707 -0.0594712931124669 -0.0522047648291051 0.0193345682938178 -0.0550439951701539 0.0784730157887345 0.0306922489892335 -0.0454092775454358 0.0947417089341769 0.0620236098112684 -0.0715312244550606 0.103708822143113 0.00146286361555356 0.0974850614843035 -0.0362127067842202 -0.0660124087318576 -0.0234200719322963 0.0338538207616337 -0.0686857483724024 0.0191065282731467 -0.0347429019076057 0.0709557788350273 -0.0417067765105699 0.0888033195739742 0.0537300740165627 0.00730274862938147 0.0637670760197876 0.0425594730505597 -0.000599033643598412 -0.0259554673458182 -0.00217595098719769 -0.130238593058478 -0.0982637693623504 0.0312776944944238 -0.0101846164497899 -0.009527206705142 -0.0593896122079114 -0.0907310618061433 0.0494118568551365 0.0969093196537127 0.0722563806140868 0.10077336840023 0.0414929981387049 0.0397721562600368 -0.078386896411514 -0.0918437578239115 -0.00614399126838677 -0.102215985711245 0.101641737566294 0.100852800938407 0.0936466434392206 0.0226251422193693 0.0303074018986773 -0.104199666911458 -0.0727523011139749 -0.00605695894346467 0.0290626511265781 0.00814377774528022 0.0137163675768283 0.012810636103454 -0.00654549369447927 0.0881759208177505 -0.0150324822036887 0.031522106111677 0.02073677700691 -0.0911743657679753 0.0731063261587065 -0.0407287027441069 0.0524574746903609 -0.00173011207341424 0.0165778761881398 -0.0184772132644236 0.0887178106995772 -0.0380467090638249 -0.0909228527105205 -0.00244774350244194 0.102638938883038 -0.0913457360885987 -0.0933763941008944 -0.0807797017060493 -0.0627733339147679 0.0937589670610031 -0.0161364426619759 0.052617210374369 -0.081988720819706 -0.083263461148651 0.0258339063714211 0.0177429187439999 -0.0944212745928139 0.0851309617853425 -0.044990604495253 0.0299331688741033 -0.0916964467830088 0.0343718594672699 0.0364821476499003 -0.0568709319569142 0.0406315744454511 -0.0821282625380902 -0.0171164973366995 -0.0968786081914069 -0.0659118461046175 -0.0977226115520068 0.0556855815324928 0.101086503159828 -0.0463697725960514 -0.0928450288459005 0.0675078531522796 0.0606184796606385 0.00545699279417249 -0.00887324578645895 -0.00747324452142321 -0.0080288045415213 -0.105578958399632 -0.0885099795533068 0.0148681515289418 -0.11296778449811 -0.0413955874440224 -0.102243783184969 -0.0652898429716244 -0.111978331509638 -0.0206028580707135 0.0956920477188148 -0.0290506800424336 -0.0798647732787541 -0.0123179075460003 0.0156971784771888 0.0991556297242614 -0.0214675438207692 -0.0336866951552645 0.0466058529167162 0.0545260219824491 0.0274936053526434 0.00540414018916273 0.0791282683267848 0.0792797223478327 0.0363280811678949 -0.0277995117953173 -0.0561211722444862 -0.0556773638097576 -0.0164090693499578 0.0861977006630325 0.00786497662754346 -0.0855015848207594 0.10702501403741 0.0804961887015093 -0.109130883309406 0.00955015872148011 -0.098249586801424 -0.031561308029268 0.0686712430069839 0.105142412458945 0.104686358007878 -0.0837049151318793 0.0625405882349098 0.00234070539038286 0.0281414652587671 -0.0918317450285435 0.0703351041390128 0.0141751785427636 -0.112995554574261 -0.0752920087874683 -0.0576263418296881 0.0176217777498675 -0.0433285443937384 0.0909036762346871 -0.0918859943856466 0.0741259303304401 0.0251407815882465 -0.0099858964463893 0.0762728131856482 0.0479216517480642 -0.0280346780741996 0.0665907212219133 -0.0471138946074317 0.00616015618023296 0.000644293072811881 0.0059219320301207 -0.0593253721447442 -0.0711462458429 -0.0344809879964512 -0.03338946733425 0.0412233465450533 -0.0891939053958439 -0.0238348103860174 0.0464896508101556 -0.0924821375625951 -0.00909040543907822 -0.0369869265550715 -0.0140864417371097 0.0339814303343893 0.093927862226254 0.0495788257038764 0.0103497005801848 0.0837555487138156 -0.0126028944852548 -0.116156152696975 -0.0433690997066317 -0.0210817437596287 -0.0832372882558802 0.0433017257017782 -0.0470239928766164 0.065052725909882 -0.093788534782988 0.0753920155848709 -0.0444833138764482 -0.0354075873080719 -0.00119279023957683 -0.00938004448759992 0.107653856938086 -0.00651428386866638 -0.0796714110099546 -0.0441687279468837 0.0481367509832723 -0.060824193847089 0.0117377904664485 -0.109816758309001 0.0533916521448199 0.0506719084742937 -0.0802690333017947 0.100180412081394 -0.0870661302740127 0.0681061242142609 -0.0210525459034576 -0.0656478200715908 0.0620333910643731 0.0548356518545017 -0.0644068372846425 -0.0649226122064977 0.05593683184791 -0.0333755820539479 -0.0438053192329215 0.0226846797601419 -0.0591394404861158 0.0396469508404918 -0.100954820138283 -0.0233756853975683 -0.0211694320887343 -0.0481712845804713 -0.0248412677154445 0.0928026721567816 0.0332860717846399 -0.040849724900073 -0.0896322223224491 0.0176576375360926 -0.0725686603286968 -0.0157599098980139 -0.100984004124883 -0.0328886780440285 -0.0806753098603196 -0.017327878914937 0.0317077450885848 0.0544875421067809 -0.020334320425346 0.0757341248490327 -0.0373863835762477 0.00329035081627843 0.012097421084531 -0.0435859333654621 0.103080529700403 -0.0595158212602803 0.0698719528200929 0.095702345284668 0.0416999225600812 0.103987392804696 0.0873713693660223 0.0104008561019602 -0.0961475383331907 0.0516764281568454 -0.089754417353285 0.0467746265998824 -0.00454605377112781 -0.0412722952825353 -0.033988069613352 0.0732511359991666 0.0893569439662042 -0.0323035113232575 -0.0005850560031975 0.0593096203198577 0.00499281075727155 -0.00926254693203038 0.0807624306166697 -0.0514863534569637 -0.0132050487460545 -0.0877277126933397 0.0766001105720629 -0.0814889003734652 -0.0507604977603306 -0.0502197981162377 -0.0468550291328894 -0.0237843710670413 -0.0347855985315279 0.0530350567132281 0.0113200535611014 -0.0375751601135854 -0.0618292784296067 -0.00762229690746399 0.0316838996213766 0.0696372301586819 -0.0821934343559553 0.100786352769398 -0.0867501824291197 -0.0951698514992151 0.0742382489684774 -0.0876988829937621 -0.0577625799871102 -0.0602383698682679 -0.0240859846006644 -0.0305847223802328 0.0132228925597318 -0.0817363071356505 -0.00258136111697209 0.0540131456434728 -0.0937388075397098 -0.0317434587088159 0.0719727200428624 -0.101332354452233 0.0835061302134112 0.0367188886762458 0.0564622893482394 -0.0335224544294135 -0.0432754526750192 0.00224779911882327 0.0110417633496234 0.0481764598270302 -0.0395818687019876 0.00742509055114847 0.0130796944999783 -0.0482652140382213 0.102837712160762 0.0439469440992005 -0.0449003451118222 -0.0198121168441582 0.0308513760983265 0.0879622773997808 -0.0410862074307208 0.0959870576783111 0.0541700957295842 -0.104554011325615 -0.0448605382244969 -0.00591832927305217 0.0849869347992644 -0.0830020392163485 0.0535349125941817 -0.0188039881688301 0.0548620561544109 -0.0730035932633784 -0.00637562371986396 0.0118986303453263 -0.0604193252198183 0.0343420455863117 -0.0957827326642776 0.0938717717973705 -0.0372187502591749 -0.0340552949710076 -0.0966940101845688 0.00175683358211053 0.0404950742896531 0.0783579630013734 0.0355849618293952 -0.0519726302029943 -0.0145239708864179 0.0309454702434838 0.0559392927694385 -0.070037132219327 0.00752193014076286 -0.0307816237826151 -0.0961201276419564 0.0608416319607637 -0.0762892286509039 -0.0920278984312582 -0.0602743032144498 0.0325585060921059 -0.0275212912199874 0.062850915038506 -0.0926972902242829 0.0680537873922032 0.0259863424184519 -0.00436410373912672 0.00613313460143174 0.0413973128801701 0.0242230248497169 -0.0695414697986674 -0.0130391345436073 0.0231489007616263 0.0696413863059068 0.0768296912713041 -0.0116337468860108 0.0760828351029632 -0.106228240388691 -0.0152197383390394 0.0796457508664062 -0.0481698821295111 0.028878707671473 0.0672804359464365 0.0623853548657994 -0.0537331838023683 0.0934721834195935 -0.0884366600268242 -0.0938747336134891 -0.0180988547363861 -0.0583287498483841 0.00124745577072758 -0.0930322198192388 -0.0916968457803969 -0.0246291848942491 -0.0139837391800054 0.0732180356269032 -0.0457237838799238 -0.0878908104979812 -0.00768166601709185 -0.0136931549921692 -0.0258181135066886 -0.0834749330413902 0.093205458907039 0.0482460679441218 -0.00226917054265232 0.0648911001285517 -0.0746141542594928 -0.102124929888539 -0.0279217788394684 -0.00283243692693277 -0.0302974683318763 -0.0544352569355069 -0.0204136009301355 0.0945186902284276 0.0957644211280148 0.092726144393932 0.0996610176137036 0.0238000363891316 0.0923352057694554 0.0989082904029097 0.0429528537392236 -0.0324074077244228 -0.0984675926532763 0.0831083041755331 -0.0191083539385759 -0.0136626644501757 0.0900560613637375 -0.0551865224178605 0.0683255552166106 0.0920859583570373 0.0333726589861613 0.0384818960768112 -0.050226910698522 -0.0908870054911952 0.00106453060840898 0.0773792285666243 0.0370821415373101 0.0420669707715818 0.0229068805759256 0.0219185095502807 -0.000678339318383625 0.0485415344996146 -0.101923411916906 -0.0515049047764163 -0.00609633514702394 0.0209914581640234 -0.0488720294323047 0.0657218028199967 0.0405586087973259 -0.0931426180339492 0.00886772946941281 -0.0771838036840436 0.0599337531268928 0.0715345961603225 0.0157650894184942 0.0247216450328975 0.0416478047478131 0.00653580982867689 0.0747255403922347 -0.0354505926837726 0.0297254229991378 -0.0260743650141043 0.101467753600126 0.0668405986097766 -0.0388562624921612 -0.00315110202819824 0.0630333428528013 -0.0895020113199894 -0.0181763143095915 0.0636566520935124 -0.10413044202751 -0.0800607916055888 -0.0661280215477087 0.0510044635062569 0.00734298308235697 0.0554800098690139 0.0053471060153977 -0.0293978176620719 -0.106519695545489 0.0024818007777222 -0.0372173895132285 -0.00659669417085373 -0.103242442557586 0.037104626834364 0.0150530004848956 0.0603997570593216 -0.0968658774471364 -0.0778831219432524 0.0644588687754322 0.108319351971519 -0.0192977278688802 -0.0266377015353872 -0.0880339838840882 -0.0491872280114446 0.0643716782915654 -0.0578414686589264 0.000798467717855434 -0.00109248738623307 0.0707220510591661 -0.0389645438876939 0.0737155746885705 -0.0736639927792536 -0.00177153359594674 -0.0716986002361194 -0.00318921057087535 0.0760601804469205 0.100822431905949 0.0519299501946606 0.076082659584546 0.096836006348957 -0.05890846886196 -0.0322365615132582 0.0261993690253536 0.0199754323393701 -0.018497494345279 0.0206773523033631 0.0191003291204485 0.0241698364671109 0.0101048919867199 -0.0920848773083236 -0.0422271440402966 0.0522895536869993 0.0611996454609668 0.0936279109033778 0.00308392727103224 0.00724421953816026 -0.0493350373387502 -0.0642229524888638 0.0303542034726023 0.0528345002417242 0.0336169762386406 -0.102917710544656 -0.0136851002843115 -0.0372248629486883 -0.0146741683394857 0.0856853972412978 -0.0699104921328733 0.0127850580462624 0.0304401444422693 0.0751526524149535 0.0908555910490705 0.0288354905092796 -0.0903049926005549 0.0611527474712328 0.044390369799582 0.0816116966887152 -0.0286807824819236 -0.0327964361899181 0.0724514907989059 -0.0918305003933941 -0.0958622436217221 0.0395867636190003 -0.102209687256108 -0.0238172984862828 -0.00658998208932258 -0.089399800131018 0.0771195689776839 0.00248036951726793 0.0937838939172433 -0.102158560352595 -0.0578268580779384 -0.0599383017133409 0.0767375463651866 0.0556503032249416 0.025149280286789 -0.108862639449355 0.0299077308282255 -0.0397564058711654 0.0703953149961387 -0.106043836489015 0.0833578070372842 0.100346382351432 -0.0152551317297824 0.0169498733591178 -0.0959450699086941 -0.0451879735726572 0.00775283437312971 0.0877214671259582 -0.0611000516693547 -0.00047076837855344 0.072694973728 -0.0105814723244921 0.0464381128989044 0.0184911203173899 0.0902067589564806 -0.0491743130188392 -0.00301869563282436 -0.040591854548083 0.0884679368226412 -0.0267200153031502 0.0812898790762209 -0.053289329778289 -0.0855585181650651 0.0176833693669654 0.0976058755948249 0.0409847089572357 -0.0763740888626085 -0.0892677643085667 -0.0153453288290607 0.0985031840126071 0.0749480918054188 0.052847383929116 -0.0094509871723046 0.0639267287399723 -0.0774284544731769 0.0526165532337035 -0.0399463171226586 -0.0876210597939103 -0.00609917407325863 -0.00382352173649268 0.0403471684701154 -0.0113485494536481 0.0290932505394469 0.036028362273768 -0.0426990003793436 -0.0107084374905012 -0.0316789754383317 0.0426796782203598 -0.077071721057284 0.0379444730900204 0.0030951752456025 0.0411829849284338 0.0225056554764973 0.0247748877642144 -0.0614726022604324 -0.0729077481079449 0.102894110882083 0.0544798572594327 -0.0747466064253562 0.0587085574837392 0.0456984972935144 0.0844143608714606 0.0307839406907707 -0.0557788083379342 0.0624998667859118 -0.0673734129999508 0.0238157519876401 -0.0226754891004225 0.0470354997291418 -0.0375719706037103 0.00757173293935775 0.0658736838767777 0.0309193109915243 0.0233741269801384 -0.0373287182608423 0.0541574157590999 -0.00510397827259745 -0.0150904540102052 -0.0993670233666402 -0.0838812821989007 -0.0155352797616825 -0.0806534422782834 0.0954323336533277 -0.0267278687410723 0.0710593952373874 -0.0639368199733109 0.0902491464535357 0.0667727118691164 -0.039972954617934 0.0207397030852981 0.0370800372900165 0.0394006523782755 0.0227168148198568 -0.00187868616523212 -0.0617731784674226 -0.0860451253061344 -0.0698767865932177 -0.0553962020315995 -0.0418113770767065 -0.00801609853471437 0.00780051136673435 -0.0630120053402608 -0.0334891085401772 -0.0990628381035303 -0.00324697462755893 0.0480078375570024 0.076954436947714 0.046919203445609 0.0629385520812642 -0.0353589265318028 0.00984655067334073 0.0718013432729472 -0.0665352159129886 -0.0149478790891439 0.0419557212920965 0.0761804513766698 0.0591670505879645 0.0328098979626076 -0.0124835627164498 0.0169277958546884 0.0680244804991438 -0.0625159886804828 -0.0227240058192272 0.00617208491665704 0.0895130633911724 0.0823942454065276 -0.0938151626744254 -0.0407354301773223 -0.00202843472985541 0.0774880104127115 0.0779532069236051 0.0853841022765945 0.0739049316722808 -0.0355443120242875 0.0618983600209252 0.0382429877642923 0.000988759779069537 0.0833945362746031 0.0670656858656394 -0.0885895706896967 -0.00285177732221598 0.0791006633864782 0.0726627717555697 -0.0645198665110613 0.0524597497437447 0.0731030537019506 -0.0150761672198714 0.0349426549139865 -0.0782178271756342 -0.0324603653250024 -0.00525936117583321 -0.0727729430706589 -0.0878603069283506 0.028303643475672 0.0811161781699822 0.0726532307859321 -0.0933495988657799 0.0673069499386484 0.0708378132518343 0.0268200665305278 -0.0278827770661063 0.0953218969347661 0.0882572685804412 0.0350355268904058 0.0885368498273385 -0.0419436960276968 0.0790124544126151 -0.0169038344934668 -0.083500844539404 -0.033006702290021 0.0863253124484336 0.0977389838728871 0.0641150718040604 -0.0457787207817739 0.0180949536848699 0.108302289603881 0.0662819261972189 0.0134820473712945 0.0529397227511321 -0.0745810099064674 -0.0889335140369983 -0.100341548443675 -0.00594027334088654 -0.0289651219005835 0.0914551404680631 -0.0742544655004915 0.0889600388150775 0.0437554017347363 -0.0108562943429436 -0.0425875777873691 -0.0741684929875821 0.0895650260340595 0.0674085584601938 0.0947151931125041 0.0867473705862078 -0.0929349059720019 -0.0871064997828041 -0.0370970819405864 -0.0706610794283881 0.0111650953538081 -0.0711980029743606 0.0109527904064606 -0.0242450483873236 0.0627869710448246 -0.062701569418472 0.0240479364711255 0.0374893739939213 -0.0122476225905557 -0.035007192392023 -0.0455947495126 -0.0772783867371175 0.0989467764014819 0.0361359271543902 -0.124682919299038 -0.000847986666757363 0.0960496101273761 0.0539411282787033 -0.0631105824825381 -0.0517882355665149 0.00436092881869221 0.128245565355485 -0.00500420116580441 -0.0418196734848457 0.103784134186504 0.000746139399634426 -0.0644754905242461 -0.0733784751663359 -0.078135203660428 0.0959851757522416 0.106447650505231 -0.042958452000885 -0.0401273387366819 -0.148621296135483 -0.0274218088849641 -0.0668896709135348 -0.105605374129087 -0.125435676741153 -0.100175592473025 -0.0469007559292033 -0.0959980164175706 -0.0226022625260094 -0.0570753049136108 0.0389155424504358 0.0739418983039621 -0.0986638716710048 0.0680585796147211 0.053944189483869 0.034814087919149 -0.0457986230370686 -0.0102712071332425 -0.0805217591641619 0.0606449208963467 0.0885249280571741 0.00936939039646011 0.0143512739929539 -0.0128020933622452 -0.0586750436337696 -0.0601059134584562 -0.0354160919209891 0.101647586877796 0.116266391851905 -0.0202068767877803 0.0469308884801868 -0.00242804937115934 -0.101475067215027 -0.0497033487809697 -0.0998788909481084 0.0895295689653526 0.00177830497450518 -0.0250355504142698 -0.0281958819625585 -0.0473621017614834 -0.0571965478955087 0.0480240748684883 -0.00888392459868741 -0.0756244298957922 -0.0896609994198931 -0.0787505132476933 -0.0638811339454801 0.0788023184014075 0.0369044917437643 0.0524198646217626 0.043816039983267 0.0209362196228214 -0.044830729769463 -0.0439091815015476 -0.0190225814742922 0.0382877680921352 0.0704296877924381 0.0365352014035311 0.0637268739411077 -0.0434079564983399 0.00893658738701778 -0.0897609445209161 -0.0360275064376125 0.0835987930895862 0.0989715274334203 -0.00769911948791191 -0.0197194531671024 0.0587974300989854 0.0462159117624958 -0.0450222723779101 0.0853455998366771 0.0142647499844606 0.0974136647925103 -0.0161975681022081 -0.0577789522870011 -0.0130833425529577 -0.0813430266174439 -0.0779674819372668 -0.0054511384080515 -0.0547693385753425 0.0188315369023273 -0.0466075719488137 -0.106712376778922 0.010702767636238 -0.00502785610794628 0.069289251853734 0.0637707086863181 -0.0154085820244952 0.0289776150501371 0.141162134720253 -0.101261968082391 -0.0467008605525419 -0.0519356722714615 -0.108032807286321 -0.0492637649642034 0.00149669181956622 0.034795654305043 -0.935298135959988 -1.11607556243124 -0.436560698170333 0.149384483608291 0.534119677880608 -0.79997479483133 0.272881278645433 -0.485325951408849 0.422806315591902 1.04096684634408 -1.08722973962308 0.85304712605902 0.404161533297179 0.987515067402913 0.00943185697680296 -1.01061024751804 0.0144756029758252 0.0363925674870617 -0.00329989390988429 -0.003261833090635 0.0197453397212479 -0.0188502281024559 -0.00594677406345452 -0.00887512582633193 0.0460116573434492 -0.0317073698100278 0.0154643912400186 -0.0154092673966309 -0.0342076267386322 -0.0153889989175207 0.0169803009283465 -0.0112119305091038 -0.0243647384304267 0.00606585741020137 -0.0298899347201164 -0.0277807686658624 -0.0208039157031784 -0.00653981923345226 0.0400898296699264 0.0199390797390833 0.0216483324248826 -0.038407283043852 0.0284722815291333 -0.00405932106772962 -0.00087243085422537 0.003104641260774 0.0242621038223326 -0.0108692054075428 -0.00552419800635606 0.00104476456165051 0.0287744375525248 0.0206112533389823 -7.54371427655709e-005 -0.00819432875060306 0.00122084593169079 0.022882138290156 0.0191566762189715 -0.0157851458286744 -0.0352543849177356 -0.0382101309845272 -0.00320669034617376 -0.0300561887173142 -0.00803595066027372 -0.0268145802758723 0.0169108568682908 0.0183025678881249 0.03921870332645 -0.0167162288499288 -0.00458920281184731 -0.0218617280004856 0.0027890914737504 0.0277912248426144 0.0265181545242488 0.045006340640069 0.0125269828512669 -0.0249227194013282 0.00447201329865955 0.0117109551635726 0.0199583736701944 -0.0132615423096857 6.22927773571955e-005 -0.0380093823168174 -0.02836875412494 -0.0149771758632608 -0.00558038930480723 0.00879733402923411 -0.0173119275282809 -0.0359007204989453 -0.0272224051496651 0.00370144014088153 0.0391444369679395 -0.000192278004435284 0.0142391144534872 -0.0214820784017741 0.00694946394815131 -0.0066800881501241 0.017036431897673 -4.72642277119035e-005 0.00270941009295831 0.00427427949268804 0.014588618421224 -0.0114616042577015 0.0368692937992045 0.0195473747286602 0.0305819436143524 0.0304250063157202 -0.0282731548189106 0.0163188493300122 -0.0199022528931086 0.0362869429308667 -0.036105501036324 -0.0411132029572509 0.0403882505549815 -0.0113404284976362 -0.0222618837041732 0.0133889509321163 0.0134520532269856 -0.00400511615010275 -0.0348419575125123 0.0215604186655738 -0.024366336641748 0.040034185441212 0.000442736725870981 -0.0133431979541992 -0.0337509912560774 0.0341971650831005 -0.0100167537207302 0.00823452203568315 0.00351425816102662 -0.00090780907726887 -0.0129532870051709 -0.0400977220552739 0.00666858154405679 -0.0115575549990841 0.00385774625543284 0.0105503786479863 -0.00976111790247454 0.0147613655539416 0.017632743783592 0.0134335542230674 0.0161655122624219 -0.00290195438779156 0.0163647513159124 -0.0290361818122943 0.00374766754127861 -0.0385265108606276 -0.0103053864016146 0.00152643270532944 0.0112313881273286 0.0140539212386341 0.0368529614519026 0.0199697693733228 0.00965504021088767 0.0194650483195732 0.0421479148422427 0.0075170914613032 -0.00360442308291887 0.0106491484618556 0.0188799806523538 -0.0274558302559322 -0.0369899913628287 -0.0302032527058375 0.0230829833003877 -0.039119411490163 0.00236720114776677 -0.0251806888776022 -0.0432140015572101 0.0380528424133974 -0.0223690362911722 -0.0257989791358911 0.00311608469500452 -0.035095848532357 0.0220266564397168 0.0197569700987275 -0.0396088539580218 0.00306717098377965 0.00036194833748697 0.0261834390512371 0.0223487477634934 -0.0107377877515897 0.0122280631741631 0.0196887470590242 0.0369605456969386 -0.0319479246890335 -0.0360053960962715 0.0188109293101586 -0.0203262430601826 -0.000144037869408247 0.0378362991962525 -0.010175939474394 0.0234598536106383 0.0308343449850958 0.00938449149766735 -0.00881462891871941 0.0263963516850519 0.0229152147678506 0.0378422961261899 0.0109199711894679 0.0390323496560244 0.0202101105761167 0.0410098710244263 0.0284024672217054 -0.0321526382031814 -0.0153497962213589 -0.0349553190971924 0.0363666359224759 -0.0375870282245849 6.70171653052225e-006 -0.0379333749374094 -0.0369550660198911 0.0404091213484666 -0.0236366614559076 -0.0288435808926773 -0.0144459638139808 0.0320987998925156 -0.00723358098588196 0.019628502049915 0.0321602656279554 -0.00724259967211042 -0.0234680589672028 -0.00328411737119248 -0.0110047661249701 -0.013451078730053 -0.000740486005461087 -0.0305918773007414 -0.0385496392193022 0.0295178555471506 0.00906024587938374 0.0230312908107495 0.0267555980734052 -0.0377822326342074 -0.0457551484228742 -0.00132316227814155 -0.0340405156461441 -0.0142533742852956 0.0148242098021799 -0.0431855948138231 0.0158184638512568 0.0327978369718722 0.0369363311274415 0.0264085343943804 -0.00680496561257636 -0.0129993310753536 -0.0290402424970488 0.0248836003863499 0.0243935362619995 -0.0132387167356349 -0.0364083062713887 -0.0163920614090082 -0.0306818202085621 0.0341691368459121 0.0313505066258714 0.0419216804831912 0.0196138879881126 0.00805975686600202 -0.00183429144629277 0.0401267768058503 -0.0154348622288233 0.0304582221673772 0.0326247354362927 -0.00160399103311125 -0.00908590711692074 -0.0187453995563763 -0.0181082588054476 0.0162497205263082 0.0043954315929688 -0.011068268518465 -0.0220041308492048 0.00786744490340498 0.0172578823743098 0.0315892270185996 -0.0049516300414175 0.0245613630059272 0.0204381690050916 -0.00846370623100041 0.0134364118786133 -0.0329512248411074 0.0373700265235897 -0.0285791304799618 -0.02536642122917 -4.78773528490954e-005 0.02570151756065 0.000281829743210478 0.0379552685917112 0.0257927176318836 -0.0319819025069478 0.0298932426353881 0.00290027617353186 -0.0242308899723779 0.00277219261910782 0.04632438839161 0.0410716803633793 0.0385585787037755 0.0213834432295188 0.0282358437691629 0.0272990411077206 -0.0378827538839701 0.00174766478561665 -0.035554394287358 -0.0176418648394275 -0.0438085662770107 0.0317315283320906 -0.0155949219564148 -0.00102216131335759 -0.0275616969921945 -0.00350054576931948 -0.0170934841781442 -0.0294038077001845 -0.0110773481962577 0.0302599629286834 0.0459991773547064 0.00950954537475144 0.00162717368130013 -0.0292568741125197 -0.0312377331255122 6.02006206496688e-006 -0.0122144710165678 0.000653870269027315 0.0123663792040053 0.0329487728172224 -0.0333187989071125 -0.012277671632089 0.0248540755046184 -0.0129997730131678 0.0260197805103773 0.0274415266126529 0.0246055167237722 -0.0429861999197872 0.0291422753017031 0.0220322328862837 -0.0115695166653944 0.0343012713999097 -0.00658822704334691 -0.00965430305884821 -0.0360500671779436 0.0332622182454734 -0.023021841735983 -0.036311817441595 0.036756298262313 0.000219038843160656 -0.0189640201503403 -0.00178073389060906 0.0315128125419923 0.0093681759800601 0.029819634154907 0.000555900533024037 0.0304206793123122 0.0153429584375101 -0.0283812961372203 0.0194726055967948 0.0317861431260698 -0.0125384212229955 0.0114021866420187 -0.0143118951492857 -0.0258459626746089 0.00616111276685011 -0.0125379444731637 0.0419619171813453 -0.026038005657806 0.00365981582030293 -0.010306229722643 -0.0474668961773025 -0.03360885256476 0.0389984781408285 -0.0234465487384465 -0.0331147060878255 -0.0303518148244571 0.00906870749451615 0.0126511557477205 0.0327179508153854 0.011987820394077 -0.00615372679015336 0.029617893146728 0.0201687072226897 -0.0229048876952458 -0.0070510614590636 0.00877230289232756 -0.00748318466570191 -0.0343100629223873 -0.0235361941119672 -0.00795500709226717 0.00455243772504006 0.0308549364217772 -0.0310721032223134 0.0410462570908395 0.0242809329261558 -0.0407604266615346 -0.0146384650148678 -0.0203299491996889 -0.0191291163395313 -0.0228927798393629 -0.0277457998121286 -0.0376418695229854 0.0333431519180188 -0.0407488337006633 0.0396635103747629 -0.000512273157516332 -0.0344298912020252 -0.0377994572336142 -0.0200558759766681 -0.0181862708169419 -0.0112727178632292 0.0121547253569366 0.0124326964861913 -0.0168978210116417 -0.0182644388710972 -0.0189363156409197 -0.00563774061806347 0.0164654985541672 -0.0055669296276029 -0.00057177317475657 -0.0106254567240908 0.0300501066898695 0.0129787875436902 0.00362537217448456 -0.0117334723746838 0.00429528541501997 -0.040497661008078 -0.0129783801336641 -0.0176666668806729 0.00223612867103608 -0.00902502705740934 -0.0232051855770739 -0.0361261830519028 0.0207822564679059 -0.016719765884396 0.035344456627232 0.0104860141926191 0.0422278560697064 0.0237386746370931 -0.0274512861911324 0.0182772318149655 0.0323973628035853 -0.0122021783300819 0.0373341903537525 -0.000391802188406989 -0.0181902384961161 -0.00604705427271821 -0.0146915703909019 0.0271661244462709 -0.00192537033487154 0.0384089872409286 -0.0294107048102784 0.0194474939049568 -0.00152520574493312 0.0104397104928099 -0.0250568064572352 -0.00971123055705001 0.0315108796223974 -0.0225475012428074 0.00250731721276777 0.00403871055698128 0.038630121535954 0.0232827408805135 0.0104128476899726 0.0388099302677098 -0.00191883135857833 0.0214655485506757 0.0392524178369704 -0.0190945224682558 -0.0268125348114866 -0.0236772723737001 0.0170309371115365 -0.0382280796502702 0.0176803721295558 0.0454891493323731 -0.00235319872517205 0.0399761735467497 -0.0350180599208851 0.0400733149647259 0.00475972821736588 -0.0377333573302365 -0.00558142416465233 -0.0303497382164997 0.0238736733780037 -0.0350701523363351 -0.0141682240310855 0.0300534192515678 -0.0145276503878499 0.0413063190236084 -0.0250034068803282 0.0449614113052472 0.0163615441237305 0.00700420167671402 0.0384955460367396 -0.0356755248756089 -0.0298560987446399 -0.0146456629334671 0.024637268182824 -0.0307325909549379 -0.0211477680893529 0.00906031536951264 -0.036473291042338 0.0348082699590087 -0.0293431078374997 0.0144921731809246 0.0344337354358803 -0.000675043540224954 0.0330552365049989 -0.013131021645165 -0.0184858260837561 -0.000242904058146782 0.0379159037028317 0.010744315937847 0.0280935453340279 -0.00881058004729047 -0.00550645504600263 0.0358927788412419 -0.0028208124445006 0.0285410818425651 0.0106098830978722 0.00275252320067254 -0.0287059458116803 0.0286090281777845 -0.0411488666155655 -0.034019845411651 -0.0195925817655899 0.0203473760944439 -0.0409370924091569 -0.0263703697866228 0.0144969547825842 -0.00820697818578941 0.00475407673150592 -0.0246141373114882 -0.0151831854960743 -0.015429637453111 0.0234356559627935 -0.0358331997558144 -0.0298577315468629 -0.012296429223006 -0.0214912958374821 0.0392121289808432 -0.0169863682504451 -0.0417553929164848 -0.0255964745539482 0.0163715822833919 -0.0359228365056537 -0.0139728585460524 0.0311708407266237 -0.0140978586038914 -0.035179021392353 0.0121518716670658 0.0153505328784275 0.0317463459619818 -0.0326788606091437 -0.0298767040316151 -0.040496922417046 0.0337132033253039 0.00629499691414266 0.0188153420223812 0.0351359064060102 -0.00402753340415052 0.0308469977601939 0.0372683016967451 -0.0135968521111514 0.0266051555767242 -0.0395429500949591 -0.00958975117094108 0.0261583822506223 -0.0345649385469859 0.027179832743465 -0.00584039046481665 0.0325583980198673 0.0238574587335065 0.0134461206895491 -0.024318025157598 0.0278975023942708 0.0108362414493942 0.0325591374908225 -0.0143469916205892 -0.00347276544868138 0.0310142414862424 0.0072738456274899 0.0336518247809123 0.000133927655753473 -0.0266696268921656 0.0173964103221454 -0.000580921542014846 0.0141057818441814 -0.0244337565430568 0.00193677487788661 -0.0370077279642977 0.0276899321171594 0.00430593003596712 0.00106703025736128 -0.0282204794515968 0.0253262106139972 -0.028816868757875 -0.0166533884694185 -0.00867581942510149 -0.0270393254704737 0.0353542688887062 0.0396421943794916 -0.00945991465743439 0.0193698696866032 -0.00552511538700574 -0.0188377280923518 0.0267561085876802 0.00694354785724663 -0.0361423092941813 0.0383483447186474 -0.0153517773143591 -0.0359943782893028 -0.0383162132061165 -0.0352695350916949 -0.00190777840207783 0.00965539255928062 -0.00628866509078833 -0.0211230157072493 0.0158531843022039 0.0205663607663943 -0.0265808156630942 0.00761190692340097 0.00331133922074176 0.0110046111350295 0.0320034677596878 -0.0295766961638132 0.0255471456897225 -0.0394033825951766 0.0132675453349859 0.00959649214202878 0.00339033441688431 -0.00537349465778465 0.0380888562799659 -0.0348984930318522 0.00135649339574282 -0.0112380141576147 0.0124936316075045 0.016876977351275 0.00631347355102676 -0.0267252080883623 -0.0362750659563773 0.0327882483125229 0.0295557244479041 0.0383871750417239 -0.0199313611546731 0.0340578384689419 0.0361225739289467 0.0185594655057787 -0.0273218971900898 -0.00797039971971044 0.0129250401942623 0.0189856847799558 -0.0145287934059615 -0.0192483572845601 0.0101678475647811 -0.0156587405866384 -0.0219135137284341 0.0102191265214112 -0.0415455933336831 0.00910203049665021 0.0221056489990903 0.0328957873267311 0.0371937024328945 -0.0199171819729818 0.0398191951927328 0.0236720524770176 0.00709541546499349 0.0374831999107743 0.0190522057261291 -0.0393956679520972 0.0284001040243138 -0.0037146999346798 0.0203870666284074 0.0156316726002447 -0.0255221101446104 0.0249485376543072 0.023181864673662 -0.0253717652433595 -0.00505990012380206 0.0314210366996474 0.0190521293871313 -0.0101556237333379 0.0323381240563214 0.0362426043897527 0.00778821761247622 -0.0370310837535933 0.0227036842114662 -0.0341883572196144 -0.00379592024290377 0.0441924455456406 0.0384748680809648 0.0119276530629064 0.0160934149732489 -0.00820939828171819 0.0167965153271715 -0.0282186925538157 -0.0113070440894719 0.0126448785486765 -0.0223078903645686 -0.0356832842277031 0.0134100562546694 -0.0186326194136433 -0.0049581954028602 -0.0219732386569405 0.0291579634132143 0.008579813695008 0.0292977515439437 0.0155729380476759 0.00867555912432969 0.0292021878737666 -0.0338194622836397 0.0359072250344207 0.0127596476777541 0.0125013083071805 0.00901161852381659 0.0067004525363557 0.0179597303556856 -0.00759933371096455 -0.0114511401559872 0.0394670271480609 0.00431016628969616 -0.0274040359556876 -0.0102989997157173 0.0278428398005737 0.0237656216627055 -0.0198598559261966 -0.005151031086966 0.00384409534343922 -0.00510035817306418 0.0133878200779044 0.00616442773670457 -0.0185564915203479 -0.0170134160224972 -0.0287258611070012 0.0229788186679799 -0.00134233289427002 0.00792363965264096 0.027550615936299 -0.0185967579825071 0.0176780485943618 0.0317355710380909 -0.0322557746575697 -0.0410898111011288 0.0330107101528681 0.00934530451341247 -0.000483019892091783 -0.0186284138226369 0.0365415742433178 -0.0396827375853773 0.00469448872671193 0.0131666008644563 -0.0355348580137863 0.028180216202915 -0.0251679256147317 0.0114972651811201 0.0282196327597666 0.0343270157191558 0.0171569220918527 -0.0168488145758408 0.0337792858439039 -0.0344491624937505 -0.0141643022710191 0.00220536391807773 0.00156282377661297 0.0283478827953277 0.0128128656075741 0.0111514377084222 0.00983061353083101 -0.0281354916594469 -0.0238842896451426 -0.0239759107459674 -0.0041608036423015 0.0239020474050256 -0.0207160850718754 0.0413252508460421 0.0272346860628973 0.0419889506258934 0.036888380675564 0.0377081635105604 -0.0318989163473108 0.0375128137573289 0.0146562352765311 -0.0056297123374588 -0.0151615268309225 -0.00740264572839741 0.00844521808135905 -0.000768447750456115 -0.0142015039973408 -0.0385471900003796 0.0102216601617852 -0.0241090802758762 -0.0107121618270599 0.0297875747927864 -0.0170502065936186 0.0100729851433769 0.0347461532525677 0.0125675229872409 0.0373608810233649 0.00360243563372925 0.0096770710716076 0.00679997573744288 -0.0238225942910646 -0.0189570513005444 0.0371176423527652 -0.000409828201602422 0.0211529325624049 -0.0409349104544459 0.0212511507352512 -0.00293772749073014 -0.0240208548920891 0.00287626806284343 0.0278853980303573 0.0275465831609276 -0.0216880970263997 -0.0338217774736965 0.0111729426104006 -0.00557506621699858 0.0178590181891206 -0.0127670442778216 0.017438640220181 -0.0250539125967724 -0.00411139435150069 0.049220183162414 0.0168121989250229 -0.0171317109329643 0.0342690613727618 -0.0132809401179295 0.00508429478582689 -0.0131089498047761 -0.0342207649497113 0.0145928615711898 -0.0229566730448016 -0.000571309608957989 -0.0376783027623287 -0.0185798369892611 -0.0279351581436949 0.0150934239529203 -0.0245430140430617 0.0325544542858252 0.0209884101280331 -0.0351479921409025 -0.0372087271524778 0.0106529750728619 -0.0234761558059125 0.0386319073929249 0.0290705782458169 -0.0305499406689997 0.041066798080187 0.0159854937748199 0.00881465074415054 -0.00981494367582694 0.0430068144431591 0.0293275156106439 -0.0430170699610353 -0.0256957360267098 0.0475647528477464 0.0193905065212217 -0.0123391916768839 0.0375646621804708 0.0265470695665437 -0.0150924661879578 0.0274794457320454 0.000367121388593911 0.0282029245009859 -0.0381762422106808 -0.000919160249711378 -0.0340683947845723 0.0352759303557393 0.0345029924221944 -0.0183388361934338 -0.00285227126558373 0.0386312673584753 0.0332715058985794 0.00715061605580183 0.00787999843543978 0.0498731129004892 0.00119680927879465 -0.0328243452631127 0.00778215436250961 0.0261324215739308 -0.0191515219590665 0.0063836327332382 0.00558811106415725 -0.00515768470947756 0.029486833086185 -0.017834653157733 0.0367572749141707 -0.0112956278613488 0.0395437109027803 -0.00791430135203558 0.000582555739038847 -0.0229999163554584 0.0201712789347817 0.0257905523959285 0.0245620631048259 -0.000344016927708097 -0.0201645198609046 -0.0367337774509147 0.0286714790412526 0.0236492898782193 0.0406037864457067 0.00103087368196687 0.0029393094675055 0.0215963442589818 0.0379955776227431 -0.000379951027014876 0.00246008504240547 -0.00909131814651883 -0.0211282360853398 0.0399278174933983 -0.00856020933426642 -0.0403600821120575 -0.0143336616843403 0.0360838306433644 -8.56895198899093e-005 0.0353258497542874 0.0312421482565546 -0.0089543498167789 -0.0177335191134796 -0.0240158303075638 0.0204318036064306 0.0100945943205553 0.0416342333387131 -0.02716498265946 0.00139680153502909 0.0258781680028158 0.0381794365749993 -0.0204532510573422 -0.0254917803013137 -0.0174993032438927 -0.00677152824640933 0.0347356023327258 -0.0105697916388745 0.0337375615765613 0.0390550735157903 0.00327007749421264 0.0339388668518277 0.0307514411029443 0.00853427805586918 -0.0123830193422977 -0.00576461208412886 0.0420726654026655 0.0117328075299284 -0.00482033302437334 -0.000584037057611951 -0.0168976051193064 -0.00625591013213746 -0.0378607817405412 -0.0226457828773544 0.0416514978930033 0.0203949573715746 -0.0017968881551889 0.00886860730667852 0.0205695530282106 0.00953157510441591 0.0130430550054511 -0.00918736881105001 0.018626914563707 -0.0218330373309742 -0.0372157770428783 -0.00835360825566036 0.0360766803135149 0.041219298312239 0.0365104420766829 -0.000565327674994712 0.00546835595798989 -0.00969685191460147 0.0378199599587051 0.00265092896717856 -0.0202893461527022 0.0274106378048387 0.0068484415324415 -0.0249684094055089 -0.010834748175851 -0.00106711695197611 0.0094730765396347 -0.0178687715231053 -0.0180146816045593 0.0163351728553561 0.0247818965870321 0.0233980747160216 -0.0383950047663561 -0.00130692606231309 -0.0397633513377898 -0.0126059296170324 -0.0382416096155323 0.00119529022503539 -0.0304436912006499 -0.0390713062499492 -0.0109544851119825 -0.01338575476505 0.0380301593082254 0.0177779562164957 -0.0322637722306619 -0.0258017897903345 0.0115993636799609 0.00174825790668226 0.00231321678638245 -0.0329406754899065 -0.0125837072274922 -0.0281450376959212 -0.0246425643270638 -0.0208469386959362 -0.0231713771187367 -0.00403328604874025 -0.037947397337126 -0.00218939900153128 0.0162319777166906 -0.0277165754742635 0.0139649650432705 -0.0416028350081111 -0.00415799884894816 -0.0121084161988334 0.0196457486331665 0.0126322468843873 -0.032825585872843 -0.0279265965223658 0.0379499315763436 0.0148961700392701 0.0298635472268567 -0.0340569735619556 0.0150971878755305 0.0368037419325604 -0.0114702417088904 0.0202032665848365 -0.00446695446421578 0.0364070654937445 -0.00342293070927016 0.0369574372990713 0.0333881876652763 0.0182798526598292 0.028117329050906 -0.0123182673255668 -0.0026938838548772 -0.0251363387528201 0.00161660320307604 0.0400296429205053 0.0337639812012488 -0.00113951728255956 0.0381444610650518 0.0118463858663103 0.0104057204174447 0.0181498276073778 0.022243522362725 0.020758794722472 -0.0108464624994415 -0.038044546794043 0.0365902547808207 -0.0213884634216316 0.0294334208073143 -0.0378917632670168 0.00602843979487265 -0.0324077272267344 0.0327157579933774 0.026997041412942 0.0298289411380375 -0.0380469503334072 0.0256054558679394 0.00787739616374113 -0.0289475653357814 0.039079459990939 0.00399506691354267 0.0252237825170081 0.0372518436475245 -0.0338558352944146 0.0246388795874678 0.0367037617644988 -0.00974313885433216 0.0164874990085162 0.0383996645565251 0.00866327526609634 -0.0235417952334455 -0.0166224009508872 -0.0142504307327985 0.0354384554141712 0.0323651923874214 -0.0294553546695083 0.0225345953553671 0.00952178434248708 0.0284509086395253 0.0216066611333716 -0.0416669204272702 -0.0160285205614779 -0.0105966001586381 -0.0136508545981832 -0.0271037184658278 0.031799360843419 -0.020133867931779 -0.0199008872043251 0.0147749628592055 0.0203941815884871 0.0199213819548435 0.0236072911432955 -0.000521487908151905 0.0126355701964191 -0.00807997391411565 -0.0173152009979082 0.00711710437118136 0.0309130228384887 0.00478180972410953 -0.0171192412003953 0.00606995073564177 0.00505565407218435 0.0138868016179028 -0.0297356345776389 -0.0107173564948244 -0.0228333832753158 0.0211116621336199 -0.0139146204928609 -0.0183814263171023 0.00659395802380431 0.0150201210844452 -0.00200543041729058 0.0456795471336362 -0.0205321163141921 -0.0412191901122866 0.02888660313655 0.0184996663212463 0.0295389774029427 -0.0337262731030964 0.0228698288868102 0.00488477939948435 0.011034796915092 0.0110450530540961 -0.0121644954687191 -0.0254649824968589 -0.0178244038526298 0.032949944440747 0.0129833663562435 0.00795051605462137 0.024097433000814 -0.0259341602632674 -0.0411633922878986 0.0238922926035807 -0.00423443447550951 -0.034055858753584 -0.000317199794924053 0.0018031873286726 0.0206351327959836 -0.0376487443697559 0.0395634275736713 0.0060521444191123 -0.0224898082927116 -0.021024722713721 0.0379017992184109 0.0121159605331495 -0.0120556089133607 0.0167180307669795 -0.0223099085472595 0.00148430984116938 -0.0228845426127123 0.0120751246011696 -0.00493156738862177 0.0260188268961302 -0.0327565105636703 0.0243881765783384 -0.006239790865304 0.0103662290366901 -0.0391891926813797 -0.00540250530714006 0.0047338033070161 -0.00881602922226966 0.012150726492683 0.0315324091211249 -0.0332523853686526 0.0164531102882363 -0.0375600152179654 -0.0283917591160792 0.00264927296448961 0.00613663109365255 -0.0168499806100972 0.0360104656111427 -0.0195560634969275 -0.0297140854102747 -0.0133707795900355 0.029822121973087 -0.0104022990306098 0.02305708247281 0.00145599380704193 0.00193266249397611 -0.030865581103388 -0.0395389667755044 -0.0299361629373956 -0.0281430312270921 -0.0307602996129794 0.0280320172880159 -0.011895702314249 -0.0376001647373356 -0.00855808017620904 -0.00664824874443322 -0.0326271703192016 0.0101285552661416 -0.015407076698663 -0.0253069734696158 -0.015244840140076 0.0405319560446669 -0.0415594755749106 -0.0287470795790854 -0.00798429411060743 0.00344547931311101 -0.0063059652658161 0.010051157113153 0.0280164226962265 -0.0224651095057459 -0.0333670439359963 -0.00267776557042196 -0.0353456686302607 -0.00062953186957013 -0.0243037745838941 0.0225046823019276 0.0286388390362541 0.0114124993184589 0.00443909170236508 -0.00258023075979649 0.0294413722183386 0.0141896813338429 0.0296542887238748 0.00106413268448069 -0.035130557655984 0.00320716818288429 -0.0167369015632433 0.0197238069478239 -0.0164849621725715 -0.0253412949101902 -0.00501112274039002 0.0257902957822803 -0.0111669672375164 0.00447987378803327 0.0251128860355232 0.0293398806468467 0.0183465812336814 -0.0276701836678257 0.0413965636194927 0.000879351578845399 0.0238346372897508 0.0298163030117374 0.0282636826373373 0.0084177130648529 0.0211855234236271 0.0204279725787924 0.0428209773915875 -0.00834761943101596 0.00541206123214889 0.0132849942504624 0.0157099746575917 0.0361764803692589 0.0185761282100533 -0.0215084738060295 0.0364531044641136 0.0222657643296317 -0.00761790878559217 0.0405614911720667 -0.0346401691049785 -0.0377351536624866 -0.0314593491816168 -0.0293380280236384 0.0149330405465552 -0.0335896660534539 -0.00368092212564652 0.0234305288210462 0.043001312184809 -0.0325894474372084 0.0123082440857725 0.0367753970804825 -0.00953641331764564 -0.0108152254335462 0.0105931527841639 0.0327526769835876 0.00207395304241412 -0.0288207842594772 -0.0167811397668732 0.000603736162598015 0.0220523388399005 0.0284723415645073 0.0383036806379221 -0.0099676028447283 0.0020796202735826 -0.000241159938154045 0.00695932495456587 0.00512362394152252 -0.0314704540452238 0.000399552039020939 0.000557101739588887 -0.0237787732679922 0.014008089003266 -0.0277598424613049 0.000254605755494677 -0.0382404003660605 -0.00363621894682651 -0.0401765028761213 0.0315967624939789 -0.0391581047034057 0.0380470278979003 0.00512986204155762 0.00806732059513806 0.0300302537907664 0.000144288438929132 -0.0146622384919767 0.0219455966499008 -0.0336940485928103 -0.0257575902574903 -0.00625604246839232 -0.0151589692331887 0.0115508062775572 -0.015897439894787 -0.00626635222872415 0.0135536144306009 0.0260317771895102 -0.0416238299581771 0.0376211480914709 0.039531087185823 0.0321220480170505 0.00627454826086715 0.0163093178615192 -0.028638630977579 -0.00240060648860994 -0.0281026207185221 0.0154422333606737 -0.0235147019101507 -0.0402425302962685 -0.0283980821551482 0.0400313391516639 0.0317103586172798 -0.0281499766288308 0.00190602123884285 0.0340252585503532 -0.0152626116169488 0.0262605605973222 -0.0220912844719084 0.0253256428775755 0.0015533418618062 -0.0197553511999564 0.0133590825735102 -0.0237094009012827 0.0326496853758201 -0.00618923151038326 0.0224398730007151 0.0292346867780099 -0.0111098633592329 -0.00426132585130479 -0.0125258127269161 0.0334172713018433 -0.00867903515278036 -0.0136116313846073 -0.0434001750951232 0.00903720962729456 -0.0267323559213367 0.0361509628653433 -0.00035507658464114 0.00922494833655441 0.0218778118146728 -0.0415251561218952 -0.0304106289855795 -0.00748464145675743 0.00214144195399948 -0.016691824419782 0.0223159099039746 0.00124135709733716 -0.0184139191496752 -0.019336780610559 -0.0294876202079042 -0.0337082316434938 0.00300538451530253 0.0114165547199028 0.0156163684826352 0.011771926600068 -0.0149877870064335 0.0338491093854133 0.0124342735694979 -0.0266010854966312 -0.0135151420834315 0.0291284302671641 -0.0118854312626626 0.0245832712419683 0.0152581951879155 0.0143019589504607 -0.00318920547700059 -0.019160649106706 0.0283887296701672 -0.0140664200082444 -0.00900353898959409 -0.00525700514284476 -0.0346668983410478 0.0036869773010267 0.00865669704054166 0.0013946722182069 0.0187045087320397 -0.000654459371118853 0.0153215446033962 0.0324958447870963 -0.036208705132523 0.0312567530450265 0.00811211146634944 0.0289826302904847 -0.00785029299108989 0.0321696861867049 -0.0381019171345001 0.00557540864426777 0.0196472573391767 0.0403861775229877 0.000356198669044258 0.0104608134107087 -0.0156025969323421 0.00786987029034478 0.0140913764016967 -0.0148840344611881 0.0278229504156918 0.0147357360935338 0.0328956372131694 -0.0372762810357354 0.0135795433673142 -0.0293509749920985 0.0400255722906255 -0.0317071924766427 0.0255462132799695 0.0109502105616762 -0.0266467301697393 -0.0214735021542409 -0.0343201105967911 -0.00698103804339512 0.00694804733607716 -0.0413327539126837 0.0303322559733344 -0.0311470196485473 0.0253733418331515 0.0375386505355047 -0.0283727986694871 -0.00258359244752972 0.027718684251865 -0.0229444834900123 0.0114822565973251 0.000255820421854451 0.0342942005431138 0.0338556407480647 0.0293148469313859 0.0344880997510241 0.0405785223174629 -0.00496648763176077 -0.0280717687728259 -0.0192011826904563 -0.0408732431823608 0.0156805078153108 -0.00477470191942036 -0.0215896340950494 0.0112520609555737 -0.0233968994868946 -0.045664448605223 -0.043916078445541 -0.00878532609048562 0.0242948203069879 -0.0386027242312028 -0.00817327940421568 0.0206543044328396 0.000355723954789556 -0.00405474634068929 0.0168016626625154 0.0336743518996984 0.0192167273008575 -0.0353233168610484 -0.0104297397051268 0.00991574696665379 -0.0307893150401648 -0.0238195245345931 0.0262061678992304 -0.00959221105861131 -0.045993117651811 0.0187233410695272 0.0393729027697775 -0.00677442182488751 0.00699065038486027 0.0164584087201723 0.0329907424450126 0.00841926580114041 0.0140536203287902 -0.0159106458384539 -0.0177261480283097 0.0169464932331716 -0.0171339990305859 0.0111775526184424 0.00580854289849523 -0.0304305116476897 0.0456426526468322 0.0336967600190342 -0.019168107904305 0.0388506164552888 0.00659428404145884 0.0320732639883283 -0.00697928472882396 -0.0243640977788703 0.0315375580560549 0.0440607259979782 0.0254888071130412 0.0119342315306748 -0.00763729633097266 0.00134522375433737 -0.0264391532912979 -0.0357143552800219 -0.0436668036879281 0.0341288629658227 -0.0251735601860455 0.013958489371784 -0.0244441456422107 -0.0273306555140793 -0.00148523851919089 -0.0378645487972705 0.0290845674882405 -0.0134909114766283 -0.0347623338421761 -0.0228197527411928 0.0341616751804292 0.0326571633640705 0.0111075441767809 0.00271420798492188 0.0192889811571013 0.0369226702260056 0.0392351139691846 0.036514944236833 -0.0010150593255006 -0.0190918155069325 0.00526285247473197 -0.0324026231203717 0.0154622835670867 -0.0388910499318681 0.000482390278714538 -0.00468061267439723 -0.0122647619963271 -0.00659065895280938 -0.0345418772430118 -0.0096467654643165 -0.0184754044884997 -0.0229341001010332 0.022213179840739 -0.00281110756693508 0.0202170402415351 0.0236619375517195 0.0281401017916194 -0.0128954537345661 0.00497547922570129 0.0366777008501585 -0.0160845930484289 0.00546346700814231 0.014292939622622 -0.0283285830671321 -0.0157545596237691 -0.0243548766998621 -0.0365139452323453 -0.0344030961663479 0.0390497529958434 -0.0252324386473404 -0.00332505453982609 0.000158251405939769 -0.00261077200536842 -0.0208429374180835 0.0241485841347496 0.0273814657592616 0.0404678267172982 -0.0274298744107391 -0.0321032803575028 -0.00460007820135185 -0.0233789805777643 0.0171472400598272 -0.0115244326944189 0.0267858601400775 -0.017012553494014 0.0403729925552879 0.00478022150414644 0.00859712805492278 0.0243974001736149 0.0356313146387478 0.0288451702782894 -0.018559894593181 0.0153988938683452 -0.0379229897388872 -0.0145999621380516 0.0360937400077948 -0.0252126113614576 0.036006906756903 0.0111345694040819 0.0145962817360982 -0.0172074833953501 0.0326137642601185 0.00555338552131084 0.0126055621845592 0.0196620662236729 0.035670241250811 -0.0226248743296042 -0.0198116182784664 -0.020724591217996 0.0355188094394625 -0.0406101650806367 0.00251404539471314 -0.0304625329452955 -0.0326018790725154 0.0288018253003283 0.00943319010254083 -0.0338967055155253 -0.0140926715602763 -0.0239125873351575 0.0319842148262953 -0.0400330267866734 0.0350867683868012 0.0140688145089557 0.0352012204731302 -0.0231290373826034 -0.0244364449955932 -0.00798353882331812 0.0146277274555515 -0.0310798535808999 0.0180408048297647 -0.0109756322985502 -0.017049757725822 -0.00705548851832628 -0.00942982588311798 -0.00299392497748224 -0.0206866649283963 -0.00720949005001755 -0.00151972618398734 -0.0316020618925484 0.00408417762831254 0.022910544175109 -0.0249463592447619 -0.0290864101755421 -0.0300326935805493 -0.00563558064133463 -0.00327899707399824 -0.0140216099372808 0.00549671268297378 -0.0241139564577963 -0.028322281150307 0.0377190972460507 -0.0166495566113964 -0.00476357660304486 0.0145219975432048 -0.0346085810252267 -0.0302721027933696 0.00426105531486826 0.0148432226204387 -0.00670709135707973 0.0390849822183341 0.0126626015515353 -0.0210709049812513 -0.023388701882003 -0.00395521450421079 0.0341037520041663 0.0442283293007918 0.00321745332089915 -0.0410188854440039 -0.005950274381741 0.0147719303073825 -0.0133258689947705 0.00927102581735754 -0.0252566193604097 -0.0261954720699711 -0.00696353327323917 0.00657950676894655 0.0505429608541745 0.0170404290115104 -0.025404294745789 -0.0105778148550345 -0.0127967862044694 0.00672797276235507 0.0257061725354427 -0.0173097569152966 0.0167875345292719 0.0397849526444858 -0.0160467134707077 -0.0161220910354309 -0.0161738887938006 0.0384051892671487 -0.00155881218741526 0.0247358898785036 0.00123560406416958 0.0401003830942332 0.0205526542791171 0.0403499513941078 0.0550128695030895 0.0381588984872014 0.0157677283158542 -0.0280058113815309 -0.018528347223205 -0.00923667135264298 0.0417433664932103 -0.0343931477173781 0.0464228466324968 0.0199663164527128 -0.00961343321509877 0.0385329144368603 -0.0126821836773675 0.0270853019247436 0.0517684494754194 0.00987388525071031 -0.0286351081395183 -0.0284884865343373 0.00932266289904097 0.0364839462793209 -0.0188435727242854 0.040009763034412 0.0309735085857935 -0.0225147254023643 -0.0147966350204168 0.0398384719345962 0.0196782839787686 0.0432881151248351 -0.029771299359731 -0.0347161974406556 -0.00258373169977394 0.00154351360659836 0.0249375119893171 0.0424825397703165 -0.00981386864750385 0.0283173738436065 -0.0290919141313587 0.00130008323326612 0.0153676523173082 -0.00252870056534096 0.0208292223140629 -0.0324147704987528 -0.0180734634531922 0.036587230687787 -0.0045280189845459 0.00137761996977184 0.0344602253496612 -0.0249022832370649 0.0320593780827825 -0.0197831045434901 0.0175629969408102 -0.0199612059758445 0.00748828394396526 0.0379944697478359 0.0267095143283611 -0.0218993230383134 0.0349198245124447 -0.0230945746922666 -0.0416310474726967 0.0392867138434352 -0.00831242957463143 -0.0172910663862098 0.0057842775658176 -0.0223343288986393 0.0201083039544243 0.0317151820634883 -0.0286896427432836 -0.00271432783622735 -0.00427739908673683 -0.0197293216084033 -0.0144670770636579 -0.00118168566480668 0.000216390604121302 -0.0287943004410545 0.0046842195536588 0.0192779217496287 0.0197844491051952 0.0272772696569313 0.0065778722908245 -0.0277878635681671 0.0154089082589521 -0.0221994506010264 0.0107867142587827 0.044475859370357 -0.00331842152400701 -0.013165772205656 -0.0363585255414654 -0.00724473783519035 -0.0200904522272875 -0.0254114848595752 -0.00892222142183229 0.000132975253514255 -0.0340847556529184 -0.028490589241893 0.00232383900478445 -0.0473038447471528 0.000407733715145046 -0.011414959905639 0.00150863102585532 -0.0382853962450498 -0.0202981801187127 0.00085903937628943 0.00522210719881508 0.000484229298752914 -0.0338723088847637 0.0103886992296486 -0.0469080079830736 0.0318235218004637 0.0181575404613304 0.0381025729904904 -0.00966707478605853 -0.0461104299005981 0.0108487902029037 0.000964382361698892 -0.0323908497065719 0.030208804502221 -0.037659217448269 0.00363032791485017 -0.0125637403533932 -0.00144675238238235 0.0164841782577355 -0.0137062767624898 -0.0338438761857343 0.010207693722441 -0.0275954679495277 0.03685440996744 -0.00622998811304344 -0.00797275394196747 0.0115079599157839 0.0375931008973213 0.0218122989433342 -0.0192429802791392 -0.0324730907628388 -0.0226038158091181 0.0100185786366167 -0.00912939230561022 -0.012170899805513 -0.0291437658239778 0.0139569383173016 0.0294459520653776 -0.0240754359721224 -0.01567108592673 -0.00242089351735898 0.00841859162492874 -0.0340907544039185 0.0355815805571074 -0.0394767501253771 -0.0350383012824173 0.00586736142106166 0.0174226341205204 -0.0250778022874117 0.0168245465901126 0.0154925104531733 -0.0054906855611124 -0.00549195752088318 -0.0263129106114081 0.0202328496075112 -0.0288207131620556 -0.0114035954796244 -0.0126067799395394 0.0312097564724563 0.0383365838934593 -0.00830540338679904 0.0338850665915943 0.00212276031914377 -0.034344978879715 0.0321567315636735 0.0263697478721584 0.0111539497110428 0.0164294379036295 -0.00408855948756131 0.00109389760285997 0.0124382459967049 0.00897194362379422 -0.0163842303976117 0.0441359886519912 -0.000311553406460044 0.0228603915466157 -0.0296322482151188 -0.00394866998194795 0.00307196810814156 0.0162052739938213 -0.00871543081118157 0.0348396603119173 0.0108825888532 -0.0275106603735973 -0.0304784475132093 0.0193929025162004 0.010507598947761 0.0211852298628811 -0.00562234874970579 -0.025200256557849 0.000457321904595884 -0.038099664154549 0.0126870258081775 0.0218969983095076 -0.0105835704547335 0.00717077406738025 0.00499918997653519 -0.0431277344984309 -0.0294902808355337 -0.0256930972254543 0.0351270859356968 0.0158504325055662 -0.0314757025483323 -0.0197723029137258 0.0275203222068543 -0.0271186942782647 -0.0331195567894751 -0.0217193989007382 -0.00832880437429499 -0.0336403456350181 0.0194153757695749 -0.00727895815678955 0.00474572729399485 -0.00364429963754714 0.0206524381612065 0.0354800939321361 -0.000277181124814563 -0.0103980400090167 0.0274264717988745 0.00954459327116232 0.0482058248320725 0.04537583444549 -0.00197553061979281 0.00747510926848349 0.00858199825096677 0.0280798683288557 -0.0195949075108708 -0.0269179801636004 -0.00553562094429633 -0.028683709878574 -0.00176628704694024 0.0288232350788056 0.0375039615346693 0.0292891297990759 -0.0250395221631468 -8.41466887844519e-005 0.0287758140304061 0.045726449990878 0.00913090249037832 0.0359034576565033 0.00768799285269032 0.00102422133459162 -0.0438160502307465 -0.0438032296443609 -0.02795332732222 0.0330024694549396 -0.013859397887918 -0.0207735714014715 -0.0478076478667324 -0.0323211355484657 0.0173842576558602 -0.0212420424878604 0.0302148630916695 0.0196190590413596 0.00886933588541286 0.0262303013672298 -0.00748945056304762 -0.00882969032287658 0.00464749497823235 -0.0176239078068359 -0.01935623792381 -0.01042963891624 -0.0171224151732402 -0.0178507538575826 -0.00027542027309256 0.0291862265783372 0.0222530674546834 -0.0207013754621269 -0.0307505120300496 -0.0295545022695814 -0.0223426579791661 0.00763924332921558 0.0131196386674334 -0.0243774408571167 -0.020717803467042 -0.0297508918493866 -0.0445371285474597 0.00941649148049434 -0.0343792743074916 0.0120231783753679 -0.0318858211995097 -0.0472326050520552 -0.00769869915415972 -0.0121014573129651 0.00583139567105726 -0.0239172580491295 0.0265040173403005 -0.00805014991530735 0.0275527773303417 -0.0342199652369907 -0.0116409844271156 -0.0166062700500464 0.0206553583976323 0.0195447721475564 -0.0198392602436145 0.0084302887151538 -0.0187340296273634 -0.0440403090463834 -0.0188792664406306 -0.0380597495081132 0.00427860086891004 0.0078078028036655 -0.0290880030019242 0.0273127499977173 -0.0192500875203224 -0.0398770784139144 -0.0331864547892636 -0.0133375598040937 0.0273221636457364 -0.0371471758895742 -0.0123740540735436 -0.00373153353755634 0.0341167058469361 -0.0102120708346506 0.0220516538378535 0.0279514668476401 -0.00230613579944187 0.0269714797869894 0.0225894619563375 0.00794989906598101 0.0119534063554414 0.0215940316795549 -0.0151882843445616 0.0342053265087354 0.00312235092626518 0.029515634071915 0.0189126959765164 0.00348036861206928 -0.0150449437134649 0.00285605902198377 -0.0396188773449235 0.0192599125072135 -0.0183201453770572 -0.00435127078784354 0.0261576194042502 0.00362969419802681 0.0373545775185119 -0.0023737537850911 0.0118271179506251 0.0214072963009938 -0.0310380256105121 0.0347168633448724 0.0209409095280476 -0.0187485356169556 0.000764597881811037 -0.015175354004554 0.016237588100994 -0.0386523616789402 0.0263177424142478 -0.0439626915301136 0.0446923510917516 -0.0258299175046389 -0.0146076928125804 0.0407858469580907 0.0247576168031729 -0.0247542051784585 0.0213412487425075 0.0300935278060214 0.00626056569300543 0.0045788027288147 0.0126852829884274 -0.0382053670765473 0.0463658705673945 -0.0300955239843158 0.0335206979732679 -0.00508461158114673 -0.00888674343913854 0.0431847825147387 -0.0313282872126144 -0.0190616955947249 0.0301086840085538 0.0200667496441951 0.000130441679421109 0.00978154329642093 0.0023194528702105 0.0380126193416594 0.0315625262155887 -0.0318899799502218 -0.0363730682684159 0.00613546049821118 0.0315746396820603 0.0151580082669522 -0.0351802761007955 0.0427012090828656 0.0142926699984929 0.0125405146969854 0.00386373234509454 -0.0457003720185798 0.0106645198866626 0.0391506450661365 -0.00745703605122648 0.0380178308498642 -0.0188751200334003 -0.00800289133309468 -0.00596984472089409 -0.000442718267173073 0.0377828348967932 -0.0280398035299322 0.01008534271425 -0.0270475057705332 0.0117689880894949 0.00789325063030478 0.00370385489824598 0.00475759681185863 0.0398697094504216 0.00944148540855884 0.0327988846074842 0.00152480792632331 -0.000513443574279338 0.0191642114867961 0.0215442972179979 0.00793848249978548 0.0175543654874249 0.0330352898958368 0.0327210438334689 -0.0205945056214026 -0.0189363063146397 0.0242313281947455 -0.0355124980195635 -0.0152825776873973 -0.025772589508749 -0.0244283744065764 -0.0103069219059512 0.0381254709168351 0.0289684072369807 -0.0218447869785371 -0.0222210199468434 0.03953347042984 0.00771834946795669 -0.00249413892830117 0.00845770109639334 -0.0392683594362865 -0.00947887449577483 -0.00753967356664952 -0.0377185529582119 0.0217093081831895 0.0231262407627336 -0.0261223814948879 -0.0180803629954649 -0.0129084962416239 -0.00841737256292325 0.0292897218573954 -0.0102407748052725 0.0138437070592365 0.0142197259887393 0.00148656155721191 -0.0344078323071569 0.00911730233649822 0.00423722759481791 0.0235984356010324 -0.040998247500414 0.0384372492474612 0.040588632747331 0.0339084772703532 0.00859440168761143 -0.0287838770350547 -0.00991498638010727 0.0400082594653089 -0.0298864621076347 0.0304518513534853 0.016887561420512 0.0143024064742761 0.0345664790700631 0.0159911344311158 -0.0123239357290618 0.0453370496012832 0.0248653109796467 -0.0242778049056117 -0.0163324792092096 -0.0344235803075299 0.0413334995398547 0.0144210077676344 0.0197140525989656 0.0390108532366377 0.013835873482325 0.035196266898951 0.0382866564415219 -0.0189814628276617 -0.0171586525111487 0.0400804894810274 0.0371727352500643 -0.0389651291655252 0.01477902382239 0.0279468217579191 0.0253275377254361 -0.0231715558967921 0.00950090039556498 -0.0303770815843355 0.031227121060187 -0.0317960667249251 0.0129592678082647 0.00854975810476583 -0.030590317974233 0.0260664384927864 0.00591312838615279 -0.0313131602679147 -0.0171116900011377 0.0276024234641878 0.0323375196573383 -0.0171875358878716 -0.0304862588740536 0.00491300652969588 -0.0205303653951525 0.0254031580932153 -0.0404968044619206 -0.0264449883712207 -0.00502068193608665 0.0272385371927681 0.00138974991399597 0.0181632659622777 0.00188779370090043 -0.0144246710083341 0.0318580197589519 0.029923245426662 -0.0133234117541516 0.0209739848890964 -0.00516906026254067 -0.0159017525137911 0.0290097703501688 -0.0384998356355303 0.00679977538263597 0.0024255798668984 0.0133413301007466 0.0289065433887584 -0.01895369510842 0.0350217760179879 -0.000974693991460246 0.00524007534575484 0.0124546813551357 0.0123566710965287 -0.0304681921377256 0.0123380612806429 -0.0402434729243531 -0.026973086048959 -0.0348780977943828 0.0337020385563219 -0.00104629102122468 0.0292115454438232 -0.0402808773792783 0.0176418496725283 0.00882525755921297 0.017026323077843 -0.0343502250280481 -0.0168301154873603 -0.0194842293592873 -0.0085214050661104 -0.000667144658826807 -0.0221786860477596 -0.0288464356033281 0.0248704675937085 -0.0190177605665657 0.0328952899630212 -0.0367483676633212 0.0307118060797103 0.040009666880553 -0.0323382132521703 0.00157347148690964 -0.0288454658582039 -0.0171452578140439 0.01159038516307 -0.0439360968907048 -0.0397715848658859 -0.00547160228994864 -0.0307509737028439 0.00153187886452201 0.0161165906252236 0.0408443091097789 -0.00214827375610691 -0.0170950462576693 -0.0219164611916127 0.0145922915028166 0.0163790492285133 0.0193753023839885 -0.0156112990099905 -0.0221901127086933 0.0350841846186862 0.00457034822836506 0.0112647445678859 0.0271511069619655 -0.000466256233805399 -0.0298479545250418 0.00925378809262286 0.00956736393884465 0.028052878693751 -0.0368601695959392 0.0434000208042742 -0.0360195297188955 -0.016202334305141 -0.0315737434269798 -0.0134499530256957 -0.00420734981955761 0.0278539059938081 0.0289300453264456 -0.0261763303176828 -0.0147853122769614 0.00931388118261168 -0.0418229585713444 -0.0162669345047279 0.0222705168159927 -0.037926370195667 -0.00229513612338422 -0.0442069151447499 -0.0245864746287446 0.00847108460039399 0.0349974100675466 0.000622335500082078 0.0337980384901875 0.0248722639324192 -0.0255481195489674 0.00591558651829 -0.0280208763669222 -0.0418416574339437 -0.000633981847191047 -0.0297503130000553 0.0328602331866604 0.0415615753160805 -0.00791394141561925 0.0140787736397963 0.00748769125203651 0.0114765608070318 -0.023660395396602 -0.0176866333777473 -0.0179305996789651 -0.0341471806008318 0.0268658281262276 0.0416467983525761 -0.0223616926266803 -0.000703168578152024 -0.0159890662385447 0.033840243600013 0.0135258514566835 -0.0440973493341044 -0.0428086961980995 0.00620945232257166 -0.0332407644900279 0.0304836058965563 -0.00476575068292174 0.00116892935082126 -0.0112145556968719 -0.00156761903278839 -0.0140999467377219 0.01998555302151 0.029789551134406 -0.037062541982597 -0.0363072780794292 0.0163634424309225 -0.0155742203589033 -0.00527572852804808 0.0037933573200591 0.0306552793719367 -0.030261165099625 0.0109989754234208 0.030987674835299 -0.0409207716021299 0.0190724075843263 -0.0296858364635666 -0.0382596627943993 0.0149337735198348 -0.027996025913484 0.00700117079419107 0.0124234056092825 -0.0335488299257803 -0.0154952919989919 -0.0338612673226932 -0.00440330106142011 0.0273302426056841 0.0299366668179457 -0.0208747064785174 -0.0326080493285652 0.0349226119439513 0.034929852920621 0.0222182753303149 -0.0426868282277812 -0.0415737684848993 -0.0373726453093629 -0.0126530636285575 -0.0273509135543019 -0.0446971876651272 0.0213610643544938 -0.0298060254833351 -0.00660561047910049 -0.00678801309726626 0.00966182297349307 -0.0342084421580734 -0.0281466954407834 -0.0422139401895448 -0.0300234327293865 -0.039415438744386 -0.000425875816144504 0.0333652511236057 0.0259231366310853 0.0222700011596539 -0.00579389282304472 0.0334697780263989 0.0289882447545947 0.0224461724213355 0.0160516748891241 -0.0115924123674951 -0.0268028866212062 0.0193250204179117 -0.0158809732232417 -0.00759824023290899 -0.0104672760252665 0.000715795045687143 0.0179081454655042 -0.0430702878626397 0.0340784435139939 -0.0232344130884476 0.0247050162649362 0.0280327688549666 -0.0235668701929406 -0.0226516125500235 -0.0126132429972256 -0.0405191887139311 0.0100346551052504 0.00898683058996636 0.00448632873568308 -0.0202723730261675 -0.00868722953606855 0.0207919980965997 -0.0328788523618057 -0.0208617216921738 0.0183993963457289 -0.00562606283031352 -0.0339755952230179 -0.00283600301384965 0.0312796035005728 0.0294038421769728 0.0311314465573337 0.0347836403630123 0.0181525763300068 0.0120513628506409 -0.000580914600072732 -0.0296627766825229 0.0173141909618571 0.00471781500436259 -0.00825061757549729 0.0255198381954349 0.0256474458963883 -0.0348413857266802 0.0274385855324054 -0.0415137425183829 -0.0241494851379307 -0.0228078818662658 -0.0161661174199765 0.003854315394333 -0.00873172982650038 -0.00277627531439629 -0.0126704577039258 -0.0297707869841395 0.00684936003627778 -0.0254327527631996 -0.0315641035022505 0.0365721651549562 0.0178035968430632 -0.0194210925439784 -0.0377090595512037 0.00349598014598494 -0.00621100333362109 -0.0371138654285026 -0.0136291219485696 0.0304751982023893 -0.00809671652832297 0.0190072488785636 -0.0102259626257231 -0.00500741793604033 -0.023887687387513 0.0301017427637868 -0.035362718796334 -0.00308508275283861 0.00209160806903422 0.0389946637226845 0.0101980783468755 0.00966133817192202 -0.0297514102851986 -0.0245676991154182 -0.0235316923109283 -0.0087598312276169 -0.0125568045883124 0.0362775655007306 0.0292421211771859 0.0450211771338987 -0.0300143631957285 -0.032615102224345 0.00245556873036643 -0.0154828474200004 0.00937452748925591 -0.0304676815268644 -0.0142328103496886 0.00715751889455846 -0.0108682015087701 0.00976470896893455 0.0394806184270941 0.0430706053999196 0.0020084759827358 0.0252427422529199 0.0133849598682677 0.0254407356314953 0.0103942376511593 -0.00782554837202909 0.0158165416317628 -0.00525283693958327 0.00895305078389042 -0.00832172550014144 -0.0239998513217338 0.0115027302625212 -0.000969228750075929 0.0197952466215492 0.00163109411533457 0.00384566566489322 -0.0300927376262187 -0.033744551110252 0.00122960923769834 -0.0021543432158828 -0.0220288490221815 0.0241941284983092 0.0292500768948551 0.0192986000755787 -0.0134333636332969 -0.0262540919622763 -0.022071425845815 -0.0132408975675668 -0.00940203485920129 0.00229189095524408 0.0144295312032171 0.00373648270196901 -0.0386034961729726 0.0090312997362026 -0.0277616025367405 -0.00644746248377299 0.0161302156890282 0.0324369209652359 0.0200626538048909 -0.00924875808965884 0.00928938779677079 0.0300502238227288 0.0316057612245139 -0.0200669780219948 -0.0291233714025023 0.0420727223523862 0.0171085620750592 -0.0285293081266357 0.0346718252520368 0.00290880244721224 -0.0288848837641929 0.00528019677539927 -0.0211325269002945 -0.024282062770522 0.00397615107802174 -0.025137994986809 -0.0134520143414347 0.00631106529554608 0.0158438576974036 -0.0174375369657307 -0.0368450937997813 0.0376464601753262 -0.0285087751931136 0.0358875572849 0.0182296078025036 -0.0247159728455402 0.0398478658742926 -0.00343358606761447 0.0361322613236068 0.00791047870952271 0.0362992761380673 0.0132663774481452 -0.0300028493788684 -0.00961469704769253 